digraph Tree {
node [shape=box] ;
0 [label="Drama <= 0.5\ngini = 0.491\nsamples = 4587\nvalue = [1985, 2602]"] ;
1 [label="annee <= 1984.5\ngini = 0.489\nsamples = 2318\nvalue = [1330, 988]"] ;
0 -> 1 [labeldistance=2.5, labelangle=45, headlabel="True"] ;
2 [label="annee <= 1976.5\ngini = 0.328\nsamples = 319\nvalue = [66, 253]"] ;
1 -> 2 ;
3 [label="budget <= 95000.0\ngini = 0.169\nsamples = 183\nvalue = [17, 166]"] ;
2 -> 3 ;
4 [label="annee <= 1958.5\ngini = 0.497\nsamples = 13\nvalue = [6, 7]"] ;
3 -> 4 ;
5 [label="gini = 0.0\nsamples = 5\nvalue = [0, 5]"] ;
4 -> 5 ;
6 [label="Thriller <= 0.5\ngini = 0.375\nsamples = 8\nvalue = [6, 2]"] ;
4 -> 6 ;
7 [label="Duree <= 86.0\ngini = 0.245\nsamples = 7\nvalue = [6, 1]"] ;
6 -> 7 ;
8 [label="gini = 0.0\nsamples = 5\nvalue = [5, 0]"] ;
7 -> 8 ;
9 [label="annee <= 1973.0\ngini = 0.5\nsamples = 2\nvalue = [1, 1]"] ;
7 -> 9 ;
10 [label="gini = 0.0\nsamples = 1\nvalue = [1, 0]"] ;
9 -> 10 ;
11 [label="gini = 0.0\nsamples = 1\nvalue = [0, 1]"] ;
9 -> 11 ;
12 [label="gini = 0.0\nsamples = 1\nvalue = [0, 1]"] ;
6 -> 12 ;
13 [label="Sci-Fi <= 0.5\ngini = 0.121\nsamples = 170\nvalue = [11, 159]"] ;
3 -> 13 ;
14 [label="budget <= 22000000.0\ngini = 0.054\nsamples = 145\nvalue = [4, 141]"] ;
13 -> 14 ;
15 [label="budget <= 11000000.0\ngini = 0.041\nsamples = 144\nvalue = [3, 141]"] ;
14 -> 15 ;
16 [label="annee <= 1965.5\ngini = 0.029\nsamples = 137\nvalue = [2, 135]"] ;
15 -> 16 ;
17 [label="gini = 0.0\nsamples = 77\nvalue = [0, 77]"] ;
16 -> 17 ;
18 [label="annee <= 1966.5\ngini = 0.064\nsamples = 60\nvalue = [2, 58]"] ;
16 -> 18 ;
19 [label="Family <= 0.5\ngini = 0.375\nsamples = 4\nvalue = [1, 3]"] ;
18 -> 19 ;
20 [label="gini = 0.0\nsamples = 3\nvalue = [0, 3]"] ;
19 -> 20 ;
21 [label="gini = 0.0\nsamples = 1\nvalue = [1, 0]"] ;
19 -> 21 ;
22 [label="Duree <= 123.5\ngini = 0.035\nsamples = 56\nvalue = [1, 55]"] ;
18 -> 22 ;
23 [label="gini = 0.0\nsamples = 45\nvalue = [0, 45]"] ;
22 -> 23 ;
24 [label="Thriller <= 0.5\ngini = 0.165\nsamples = 11\nvalue = [1, 10]"] ;
22 -> 24 ;
25 [label="gini = 0.0\nsamples = 9\nvalue = [0, 9]"] ;
24 -> 25 ;
26 [label="budget <= 5500000.0\ngini = 0.5\nsamples = 2\nvalue = [1, 1]"] ;
24 -> 26 ;
27 [label="gini = 0.0\nsamples = 1\nvalue = [1, 0]"] ;
26 -> 27 ;
28 [label="gini = 0.0\nsamples = 1\nvalue = [0, 1]"] ;
26 -> 28 ;
29 [label="budget <= 12500000.0\ngini = 0.245\nsamples = 7\nvalue = [1, 6]"] ;
15 -> 29 ;
30 [label="Duree <= 138.5\ngini = 0.5\nsamples = 2\nvalue = [1, 1]"] ;
29 -> 30 ;
31 [label="gini = 0.0\nsamples = 1\nvalue = [1, 0]"] ;
30 -> 31 ;
32 [label="gini = 0.0\nsamples = 1\nvalue = [0, 1]"] ;
30 -> 32 ;
33 [label="gini = 0.0\nsamples = 5\nvalue = [0, 5]"] ;
29 -> 33 ;
34 [label="gini = 0.0\nsamples = 1\nvalue = [1, 0]"] ;
14 -> 34 ;
35 [label="Action <= 0.5\ngini = 0.403\nsamples = 25\nvalue = [7, 18]"] ;
13 -> 35 ;
36 [label="budget <= 265500.0\ngini = 0.208\nsamples = 17\nvalue = [2, 15]"] ;
35 -> 36 ;
37 [label="Duree <= 85.0\ngini = 0.5\nsamples = 2\nvalue = [1, 1]"] ;
36 -> 37 ;
38 [label="gini = 0.0\nsamples = 1\nvalue = [1, 0]"] ;
37 -> 38 ;
39 [label="gini = 0.0\nsamples = 1\nvalue = [0, 1]"] ;
37 -> 39 ;
40 [label="Fantasy <= 0.5\ngini = 0.124\nsamples = 15\nvalue = [1, 14]"] ;
36 -> 40 ;
41 [label="gini = 0.0\nsamples = 12\nvalue = [0, 12]"] ;
40 -> 41 ;
42 [label="Romance <= 0.5\ngini = 0.444\nsamples = 3\nvalue = [1, 2]"] ;
40 -> 42 ;
43 [label="gini = 0.0\nsamples = 1\nvalue = [1, 0]"] ;
42 -> 43 ;
44 [label="gini = 0.0\nsamples = 2\nvalue = [0, 2]"] ;
42 -> 44 ;
45 [label="annee <= 1963.0\ngini = 0.469\nsamples = 8\nvalue = [5, 3]"] ;
35 -> 45 ;
46 [label="gini = 0.0\nsamples = 2\nvalue = [0, 2]"] ;
45 -> 46 ;
47 [label="budget <= 6837500.0\ngini = 0.278\nsamples = 6\nvalue = [5, 1]"] ;
45 -> 47 ;
48 [label="gini = 0.0\nsamples = 5\nvalue = [5, 0]"] ;
47 -> 48 ;
49 [label="gini = 0.0\nsamples = 1\nvalue = [0, 1]"] ;
47 -> 49 ;
50 [label="budget <= 33250000.0\ngini = 0.461\nsamples = 136\nvalue = [49, 87]"] ;
2 -> 50 ;
51 [label="Horror <= 0.5\ngini = 0.443\nsamples = 127\nvalue = [42, 85]"] ;
50 -> 51 ;
52 [label="Sci-Fi <= 0.5\ngini = 0.362\nsamples = 80\nvalue = [19, 61]"] ;
51 -> 52 ;
53 [label="Fantasy <= 0.5\ngini = 0.419\nsamples = 57\nvalue = [17, 40]"] ;
52 -> 53 ;
54 [label="budget <= 1390000.0\ngini = 0.351\nsamples = 44\nvalue = [10, 34]"] ;
53 -> 54 ;
55 [label="gini = 0.0\nsamples = 2\nvalue = [2, 0]"] ;
54 -> 55 ;
56 [label="Action <= 0.5\ngini = 0.308\nsamples = 42\nvalue = [8, 34]"] ;
54 -> 56 ;
57 [label="War <= 0.5\ngini = 0.191\nsamples = 28\nvalue = [3, 25]"] ;
56 -> 57 ;
58 [label="budget <= 13500000.0\ngini = 0.142\nsamples = 26\nvalue = [2, 24]"] ;
57 -> 58 ;
59 [label="budget <= 4250000.0\ngini = 0.083\nsamples = 23\nvalue = [1, 22]"] ;
58 -> 59 ;
60 [label="annee <= 1980.5\ngini = 0.18\nsamples = 10\nvalue = [1, 9]"] ;
59 -> 60 ;
61 [label="gini = 0.0\nsamples = 5\nvalue = [0, 5]"] ;
60 -> 61 ;
62 [label="gini = 0.32\nsamples = 5\nvalue = [1, 4]"] ;
60 -> 62 ;
63 [label="gini = 0.0\nsamples = 13\nvalue = [0, 13]"] ;
59 -> 63 ;
64 [label="Duree <= 91.5\ngini = 0.444\nsamples = 3\nvalue = [1, 2]"] ;
58 -> 64 ;
65 [label="gini = 0.0\nsamples = 1\nvalue = [1, 0]"] ;
64 -> 65 ;
66 [label="gini = 0.0\nsamples = 2\nvalue = [0, 2]"] ;
64 -> 66 ;
67 [label="annee <= 1980.5\ngini = 0.5\nsamples = 2\nvalue = [1, 1]"] ;
57 -> 67 ;
68 [label="gini = 0.0\nsamples = 1\nvalue = [1, 0]"] ;
67 -> 68 ;
69 [label="gini = 0.0\nsamples = 1\nvalue = [0, 1]"] ;
67 -> 69 ;
70 [label="Duree <= 102.0\ngini = 0.459\nsamples = 14\nvalue = [5, 9]"] ;
56 -> 70 ;
71 [label="annee <= 1981.5\ngini = 0.32\nsamples = 5\nvalue = [4, 1]"] ;
70 -> 71 ;
72 [label="gini = 0.0\nsamples = 3\nvalue = [3, 0]"] ;
71 -> 72 ;
73 [label="Duree <= 91.5\ngini = 0.5\nsamples = 2\nvalue = [1, 1]"] ;
71 -> 73 ;
74 [label="gini = 0.0\nsamples = 1\nvalue = [1, 0]"] ;
73 -> 74 ;
75 [label="gini = 0.0\nsamples = 1\nvalue = [0, 1]"] ;
73 -> 75 ;
76 [label="budget <= 7600000.0\ngini = 0.198\nsamples = 9\nvalue = [1, 8]"] ;
70 -> 76 ;
77 [label="Thriller <= 0.5\ngini = 0.5\nsamples = 2\nvalue = [1, 1]"] ;
76 -> 77 ;
78 [label="gini = 0.0\nsamples = 1\nvalue = [1, 0]"] ;
77 -> 78 ;
79 [label="gini = 0.0\nsamples = 1\nvalue = [0, 1]"] ;
77 -> 79 ;
80 [label="gini = 0.0\nsamples = 7\nvalue = [0, 7]"] ;
76 -> 80 ;
81 [label="Musical <= 0.5\ngini = 0.497\nsamples = 13\nvalue = [7, 6]"] ;
53 -> 81 ;
82 [label="annee <= 1982.5\ngini = 0.48\nsamples = 10\nvalue = [4, 6]"] ;
81 -> 82 ;
83 [label="Duree <= 130.5\ngini = 0.278\nsamples = 6\nvalue = [1, 5]"] ;
82 -> 83 ;
84 [label="gini = 0.0\nsamples = 5\nvalue = [0, 5]"] ;
83 -> 84 ;
85 [label="gini = 0.0\nsamples = 1\nvalue = [1, 0]"] ;
83 -> 85 ;
86 [label="budget <= 29500000.0\ngini = 0.375\nsamples = 4\nvalue = [3, 1]"] ;
82 -> 86 ;
87 [label="gini = 0.0\nsamples = 3\nvalue = [3, 0]"] ;
86 -> 87 ;
88 [label="gini = 0.0\nsamples = 1\nvalue = [0, 1]"] ;
86 -> 88 ;
89 [label="gini = 0.0\nsamples = 3\nvalue = [3, 0]"] ;
81 -> 89 ;
90 [label="budget <= 19000000.0\ngini = 0.159\nsamples = 23\nvalue = [2, 21]"] ;
52 -> 90 ;
91 [label="gini = 0.0\nsamples = 17\nvalue = [0, 17]"] ;
90 -> 91 ;
92 [label="budget <= 24500000.0\ngini = 0.444\nsamples = 6\nvalue = [2, 4]"] ;
90 -> 92 ;
93 [label="gini = 0.0\nsamples = 2\nvalue = [2, 0]"] ;
92 -> 93 ;
94 [label="gini = 0.0\nsamples = 4\nvalue = [0, 4]"] ;
92 -> 94 ;
95 [label="Thriller <= 0.5\ngini = 0.5\nsamples = 47\nvalue = [23, 24]"] ;
51 -> 95 ;
96 [label="Duree <= 108.0\ngini = 0.482\nsamples = 37\nvalue = [15, 22]"] ;
95 -> 96 ;
97 [label="budget <= 900000.0\ngini = 0.5\nsamples = 30\nvalue = [15, 15]"] ;
96 -> 97 ;
98 [label="budget <= 437500.0\ngini = 0.444\nsamples = 15\nvalue = [10, 5]"] ;
97 -> 98 ;
99 [label="Duree <= 87.0\ngini = 0.494\nsamples = 9\nvalue = [4, 5]"] ;
98 -> 99 ;
100 [label="budget <= 375000.0\ngini = 0.32\nsamples = 5\nvalue = [4, 1]"] ;
99 -> 100 ;
101 [label="gini = 0.0\nsamples = 4\nvalue = [4, 0]"] ;
100 -> 101 ;
102 [label="gini = 0.0\nsamples = 1\nvalue = [0, 1]"] ;
100 -> 102 ;
103 [label="gini = 0.0\nsamples = 4\nvalue = [0, 4]"] ;
99 -> 103 ;
104 [label="gini = 0.0\nsamples = 6\nvalue = [6, 0]"] ;
98 -> 104 ;
105 [label="budget <= 2250000.0\ngini = 0.444\nsamples = 15\nvalue = [5, 10]"] ;
97 -> 105 ;
106 [label="gini = 0.0\nsamples = 5\nvalue = [0, 5]"] ;
105 -> 106 ;
107 [label="Comedy <= 0.5\ngini = 0.5\nsamples = 10\nvalue = [5, 5]"] ;
105 -> 107 ;
108 [label="budget <= 6440000.0\ngini = 0.469\nsamples = 8\nvalue = [5, 3]"] ;
107 -> 108 ;
109 [label="budget <= 2890000.0\ngini = 0.48\nsamples = 5\nvalue = [2, 3]"] ;
108 -> 109 ;
110 [label="gini = 0.0\nsamples = 2\nvalue = [2, 0]"] ;
109 -> 110 ;
111 [label="gini = 0.0\nsamples = 3\nvalue = [0, 3]"] ;
109 -> 111 ;
112 [label="gini = 0.0\nsamples = 3\nvalue = [3, 0]"] ;
108 -> 112 ;
113 [label="gini = 0.0\nsamples = 2\nvalue = [0, 2]"] ;
107 -> 113 ;
114 [label="gini = 0.0\nsamples = 7\nvalue = [0, 7]"] ;
96 -> 114 ;
115 [label="budget <= 775000.0\ngini = 0.32\nsamples = 10\nvalue = [8, 2]"] ;
95 -> 115 ;
116 [label="gini = 0.0\nsamples = 1\nvalue = [0, 1]"] ;
115 -> 116 ;
117 [label="Sci-Fi <= 0.5\ngini = 0.198\nsamples = 9\nvalue = [8, 1]"] ;
115 -> 117 ;
118 [label="gini = 0.0\nsamples = 7\nvalue = [7, 0]"] ;
117 -> 118 ;
119 [label="Duree <= 102.0\ngini = 0.5\nsamples = 2\nvalue = [1, 1]"] ;
117 -> 119 ;
120 [label="gini = 0.0\nsamples = 1\nvalue = [1, 0]"] ;
119 -> 120 ;
121 [label="gini = 0.0\nsamples = 1\nvalue = [0, 1]"] ;
119 -> 121 ;
122 [label="budget <= 39500000.0\ngini = 0.346\nsamples = 9\nvalue = [7, 2]"] ;
50 -> 122 ;
123 [label="gini = 0.0\nsamples = 7\nvalue = [7, 0]"] ;
122 -> 123 ;
124 [label="gini = 0.0\nsamples = 2\nvalue = [0, 2]"] ;
122 -> 124 ;
125 [label="Duree <= 110.5\ngini = 0.465\nsamples = 1999\nvalue = [1264, 735]"] ;
1 -> 125 ;
126 [label="Animation <= 0.5\ngini = 0.418\nsamples = 1487\nvalue = [1045, 442]"] ;
125 -> 126 ;
127 [label="budget <= 6160000.0\ngini = 0.384\nsamples = 1335\nvalue = [989, 346]"] ;
126 -> 127 ;
128 [label="Horror <= 0.5\ngini = 0.494\nsamples = 222\nvalue = [123, 99]"] ;
127 -> 128 ;
129 [label="annee <= 2003.5\ngini = 0.478\nsamples = 104\nvalue = [41, 63]"] ;
128 -> 129 ;
130 [label="Sport <= 0.5\ngini = 0.343\nsamples = 41\nvalue = [9, 32]"] ;
129 -> 130 ;
131 [label="Duree <= 86.5\ngini = 0.32\nsamples = 40\nvalue = [8, 32]"] ;
130 -> 131 ;
132 [label="Action <= 0.5\ngini = 0.48\nsamples = 5\nvalue = [2, 3]"] ;
131 -> 132 ;
133 [label="gini = 0.0\nsamples = 3\nvalue = [0, 3]"] ;
132 -> 133 ;
134 [label="gini = 0.0\nsamples = 2\nvalue = [2, 0]"] ;
132 -> 134 ;
135 [label="Comedy <= 0.5\ngini = 0.284\nsamples = 35\nvalue = [6, 29]"] ;
131 -> 135 ;
136 [label="gini = 0.0\nsamples = 7\nvalue = [0, 7]"] ;
135 -> 136 ;
137 [label="budget <= 3433000.0\ngini = 0.337\nsamples = 28\nvalue = [6, 22]"] ;
135 -> 137 ;
138 [label="budget <= 450000.0\ngini = 0.231\nsamples = 15\nvalue = [2, 13]"] ;
137 -> 138 ;
139 [label="Duree <= 100.5\ngini = 0.5\nsamples = 2\nvalue = [1, 1]"] ;
138 -> 139 ;
140 [label="gini = 0.0\nsamples = 1\nvalue = [1, 0]"] ;
139 -> 140 ;
141 [label="gini = 0.0\nsamples = 1\nvalue = [0, 1]"] ;
139 -> 141 ;
142 [label="budget <= 1100000.0\ngini = 0.142\nsamples = 13\nvalue = [1, 12]"] ;
138 -> 142 ;
143 [label="gini = 0.32\nsamples = 5\nvalue = [1, 4]"] ;
142 -> 143 ;
144 [label="gini = 0.0\nsamples = 8\nvalue = [0, 8]"] ;
142 -> 144 ;
145 [label="budget <= 3750000.0\ngini = 0.426\nsamples = 13\nvalue = [4, 9]"] ;
137 -> 145 ;
146 [label="gini = 0.0\nsamples = 1\nvalue = [1, 0]"] ;
145 -> 146 ;
147 [label="Romance <= 0.5\ngini = 0.375\nsamples = 12\nvalue = [3, 9]"] ;
145 -> 147 ;
148 [label="gini = 0.219\nsamples = 8\nvalue = [1, 7]"] ;
147 -> 148 ;
149 [label="gini = 0.5\nsamples = 4\nvalue = [2, 2]"] ;
147 -> 149 ;
150 [label="gini = 0.0\nsamples = 1\nvalue = [1, 0]"] ;
130 -> 150 ;
151 [label="budget <= 2950000.0\ngini = 0.5\nsamples = 63\nvalue = [32, 31]"] ;
129 -> 151 ;
152 [label="budget <= 2250000.0\ngini = 0.436\nsamples = 28\nvalue = [9, 19]"] ;
151 -> 152 ;
153 [label="Comedy <= 0.5\ngini = 0.476\nsamples = 23\nvalue = [9, 14]"] ;
152 -> 153 ;
154 [label="annee <= 2005.0\ngini = 0.198\nsamples = 9\nvalue = [1, 8]"] ;
153 -> 154 ;
155 [label="gini = 0.0\nsamples = 1\nvalue = [1, 0]"] ;
154 -> 155 ;
156 [label="gini = 0.0\nsamples = 8\nvalue = [0, 8]"] ;
154 -> 156 ;
157 [label="Crime <= 0.5\ngini = 0.49\nsamples = 14\nvalue = [8, 6]"] ;
153 -> 157 ;
158 [label="Short <= 0.5\ngini = 0.444\nsamples = 12\nvalue = [8, 4]"] ;
157 -> 158 ;
159 [label="Duree <= 105.0\ngini = 0.397\nsamples = 11\nvalue = [8, 3]"] ;
158 -> 159 ;
160 [label="gini = 0.32\nsamples = 10\nvalue = [8, 2]"] ;
159 -> 160 ;
161 [label="gini = 0.0\nsamples = 1\nvalue = [0, 1]"] ;
159 -> 161 ;
162 [label="gini = 0.0\nsamples = 1\nvalue = [0, 1]"] ;
158 -> 162 ;
163 [label="gini = 0.0\nsamples = 2\nvalue = [0, 2]"] ;
157 -> 163 ;
164 [label="gini = 0.0\nsamples = 5\nvalue = [0, 5]"] ;
152 -> 164 ;
165 [label="Duree <= 93.5\ngini = 0.451\nsamples = 35\nvalue = [23, 12]"] ;
151 -> 165 ;
166 [label="annee <= 2005.0\ngini = 0.124\nsamples = 15\nvalue = [14, 1]"] ;
165 -> 166 ;
167 [label="Romance <= 0.5\ngini = 0.5\nsamples = 2\nvalue = [1, 1]"] ;
166 -> 167 ;
168 [label="gini = 0.0\nsamples = 1\nvalue = [0, 1]"] ;
167 -> 168 ;
169 [label="gini = 0.0\nsamples = 1\nvalue = [1, 0]"] ;
167 -> 169 ;
170 [label="gini = 0.0\nsamples = 13\nvalue = [13, 0]"] ;
166 -> 170 ;
171 [label="Action <= 0.5\ngini = 0.495\nsamples = 20\nvalue = [9, 11]"] ;
165 -> 171 ;
172 [label="Sci-Fi <= 0.5\ngini = 0.391\nsamples = 15\nvalue = [4, 11]"] ;
171 -> 172 ;
173 [label="annee <= 2009.5\ngini = 0.26\nsamples = 13\nvalue = [2, 11]"] ;
172 -> 173 ;
174 [label="annee <= 2006.5\ngini = 0.48\nsamples = 5\nvalue = [2, 3]"] ;
173 -> 174 ;
175 [label="gini = 0.0\nsamples = 3\nvalue = [0, 3]"] ;
174 -> 175 ;
176 [label="gini = 0.0\nsamples = 2\nvalue = [2, 0]"] ;
174 -> 176 ;
177 [label="gini = 0.0\nsamples = 8\nvalue = [0, 8]"] ;
173 -> 177 ;
178 [label="gini = 0.0\nsamples = 2\nvalue = [2, 0]"] ;
172 -> 178 ;
179 [label="gini = 0.0\nsamples = 5\nvalue = [5, 0]"] ;
171 -> 179 ;
180 [label="annee <= 2008.5\ngini = 0.424\nsamples = 118\nvalue = [82, 36]"] ;
128 -> 180 ;
181 [label="Thriller <= 0.5\ngini = 0.486\nsamples = 72\nvalue = [42, 30]"] ;
180 -> 181 ;
182 [label="Duree <= 101.5\ngini = 0.5\nsamples = 49\nvalue = [24, 25]"] ;
181 -> 182 ;
183 [label="annee <= 1987.5\ngini = 0.485\nsamples = 41\nvalue = [24, 17]"] ;
182 -> 183 ;
184 [label="Duree <= 88.5\ngini = 0.444\nsamples = 12\nvalue = [4, 8]"] ;
183 -> 184 ;
185 [label="Duree <= 86.5\ngini = 0.219\nsamples = 8\nvalue = [1, 7]"] ;
184 -> 185 ;
186 [label="gini = 0.0\nsamples = 5\nvalue = [0, 5]"] ;
185 -> 186 ;
187 [label="Duree <= 87.5\ngini = 0.444\nsamples = 3\nvalue = [1, 2]"] ;
185 -> 187 ;
188 [label="gini = 0.5\nsamples = 2\nvalue = [1, 1]"] ;
187 -> 188 ;
189 [label="gini = 0.0\nsamples = 1\nvalue = [0, 1]"] ;
187 -> 189 ;
190 [label="annee <= 1986.5\ngini = 0.375\nsamples = 4\nvalue = [3, 1]"] ;
184 -> 190 ;
191 [label="gini = 0.0\nsamples = 3\nvalue = [3, 0]"] ;
190 -> 191 ;
192 [label="gini = 0.0\nsamples = 1\nvalue = [0, 1]"] ;
190 -> 192 ;
193 [label="budget <= 5177500.0\ngini = 0.428\nsamples = 29\nvalue = [20, 9]"] ;
183 -> 193 ;
194 [label="budget <= 1100000.0\ngini = 0.384\nsamples = 27\nvalue = [20, 7]"] ;
193 -> 194 ;
195 [label="gini = 0.0\nsamples = 7\nvalue = [7, 0]"] ;
194 -> 195 ;
196 [label="budget <= 4400000.0\ngini = 0.455\nsamples = 20\nvalue = [13, 7]"] ;
194 -> 196 ;
197 [label="gini = 0.492\nsamples = 16\nvalue = [9, 7]"] ;
196 -> 197 ;
198 [label="gini = 0.0\nsamples = 4\nvalue = [4, 0]"] ;
196 -> 198 ;
199 [label="gini = 0.0\nsamples = 2\nvalue = [0, 2]"] ;
193 -> 199 ;
200 [label="gini = 0.0\nsamples = 8\nvalue = [0, 8]"] ;
182 -> 200 ;
201 [label="annee <= 2006.5\ngini = 0.34\nsamples = 23\nvalue = [18, 5]"] ;
181 -> 201 ;
202 [label="Crime <= 0.5\ngini = 0.198\nsamples = 18\nvalue = [16, 2]"] ;
201 -> 202 ;
203 [label="Duree <= 86.5\ngini = 0.111\nsamples = 17\nvalue = [16, 1]"] ;
202 -> 203 ;
204 [label="budget <= 3850000.0\ngini = 0.32\nsamples = 5\nvalue = [4, 1]"] ;
203 -> 204 ;
205 [label="gini = 0.0\nsamples = 4\nvalue = [4, 0]"] ;
204 -> 205 ;
206 [label="gini = 0.0\nsamples = 1\nvalue = [0, 1]"] ;
204 -> 206 ;
207 [label="gini = 0.0\nsamples = 12\nvalue = [12, 0]"] ;
203 -> 207 ;
208 [label="gini = 0.0\nsamples = 1\nvalue = [0, 1]"] ;
202 -> 208 ;
209 [label="Duree <= 97.5\ngini = 0.48\nsamples = 5\nvalue = [2, 3]"] ;
201 -> 209 ;
210 [label="gini = 0.0\nsamples = 3\nvalue = [0, 3]"] ;
209 -> 210 ;
211 [label="gini = 0.0\nsamples = 2\nvalue = [2, 0]"] ;
209 -> 211 ;
212 [label="Duree <= 105.5\ngini = 0.227\nsamples = 46\nvalue = [40, 6]"] ;
180 -> 212 ;
213 [label="Adventure <= 0.5\ngini = 0.169\nsamples = 43\nvalue = [39, 4]"] ;
212 -> 213 ;
214 [label="Action <= 0.5\ngini = 0.133\nsamples = 42\nvalue = [39, 3]"] ;
213 -> 214 ;
215 [label="budget <= 5300000.0\ngini = 0.095\nsamples = 40\nvalue = [38, 2]"] ;
214 -> 215 ;
216 [label="Mystery <= 0.5\ngini = 0.054\nsamples = 36\nvalue = [35, 1]"] ;
215 -> 216 ;
217 [label="gini = 0.0\nsamples = 30\nvalue = [30, 0]"] ;
216 -> 217 ;
218 [label="Duree <= 96.0\ngini = 0.278\nsamples = 6\nvalue = [5, 1]"] ;
216 -> 218 ;
219 [label="gini = 0.0\nsamples = 5\nvalue = [5, 0]"] ;
218 -> 219 ;
220 [label="gini = 0.0\nsamples = 1\nvalue = [0, 1]"] ;
218 -> 220 ;
221 [label="Thriller <= 0.5\ngini = 0.375\nsamples = 4\nvalue = [3, 1]"] ;
215 -> 221 ;
222 [label="gini = 0.0\nsamples = 1\nvalue = [0, 1]"] ;
221 -> 222 ;
223 [label="gini = 0.0\nsamples = 3\nvalue = [3, 0]"] ;
221 -> 223 ;
224 [label="Thriller <= 0.5\ngini = 0.5\nsamples = 2\nvalue = [1, 1]"] ;
214 -> 224 ;
225 [label="gini = 0.0\nsamples = 1\nvalue = [0, 1]"] ;
224 -> 225 ;
226 [label="gini = 0.0\nsamples = 1\nvalue = [1, 0]"] ;
224 -> 226 ;
227 [label="gini = 0.0\nsamples = 1\nvalue = [0, 1]"] ;
213 -> 227 ;
228 [label="annee <= 2011.5\ngini = 0.444\nsamples = 3\nvalue = [1, 2]"] ;
212 -> 228 ;
229 [label="gini = 0.0\nsamples = 1\nvalue = [1, 0]"] ;
228 -> 229 ;
230 [label="gini = 0.0\nsamples = 2\nvalue = [0, 2]"] ;
228 -> 230 ;
231 [label="annee <= 1991.5\ngini = 0.345\nsamples = 1113\nvalue = [866, 247]"] ;
127 -> 231 ;
232 [label="budget <= 27400000.0\ngini = 0.478\nsamples = 124\nvalue = [75, 49]"] ;
231 -> 232 ;
233 [label="budget <= 8750000.0\ngini = 0.494\nsamples = 99\nvalue = [55, 44]"] ;
232 -> 233 ;
234 [label="Duree <= 107.0\ngini = 0.32\nsamples = 15\nvalue = [12, 3]"] ;
233 -> 234 ;
235 [label="Romance <= 0.5\ngini = 0.142\nsamples = 13\nvalue = [12, 1]"] ;
234 -> 235 ;
236 [label="gini = 0.0\nsamples = 11\nvalue = [11, 0]"] ;
235 -> 236 ;
237 [label="Duree <= 93.5\ngini = 0.5\nsamples = 2\nvalue = [1, 1]"] ;
235 -> 237 ;
238 [label="gini = 0.0\nsamples = 1\nvalue = [1, 0]"] ;
237 -> 238 ;
239 [label="gini = 0.0\nsamples = 1\nvalue = [0, 1]"] ;
237 -> 239 ;
240 [label="gini = 0.0\nsamples = 2\nvalue = [0, 2]"] ;
234 -> 240 ;
241 [label="budget <= 25500000.0\ngini = 0.5\nsamples = 84\nvalue = [43, 41]"] ;
233 -> 241 ;
242 [label="budget <= 16950000.0\ngini = 0.498\nsamples = 81\nvalue = [43, 38]"] ;
241 -> 242 ;
243 [label="Adventure <= 0.5\ngini = 0.494\nsamples = 47\nvalue = [21, 26]"] ;
242 -> 243 ;
244 [label="Duree <= 101.0\ngini = 0.5\nsamples = 37\nvalue = [19, 18]"] ;
243 -> 244 ;
245 [label="budget <= 10750000.0\ngini = 0.473\nsamples = 26\nvalue = [16, 10]"] ;
244 -> 245 ;
246 [label="gini = 0.0\nsamples = 7\nvalue = [7, 0]"] ;
245 -> 246 ;
247 [label="gini = 0.499\nsamples = 19\nvalue = [9, 10]"] ;
245 -> 247 ;
248 [label="budget <= 13000000.0\ngini = 0.397\nsamples = 11\nvalue = [3, 8]"] ;
244 -> 248 ;
249 [label="gini = 0.0\nsamples = 5\nvalue = [0, 5]"] ;
248 -> 249 ;
250 [label="gini = 0.5\nsamples = 6\nvalue = [3, 3]"] ;
248 -> 250 ;
251 [label="Duree <= 102.5\ngini = 0.32\nsamples = 10\nvalue = [2, 8]"] ;
243 -> 251 ;
252 [label="gini = 0.0\nsamples = 7\nvalue = [0, 7]"] ;
251 -> 252 ;
253 [label="Duree <= 109.0\ngini = 0.444\nsamples = 3\nvalue = [2, 1]"] ;
251 -> 253 ;
254 [label="gini = 0.0\nsamples = 2\nvalue = [2, 0]"] ;
253 -> 254 ;
255 [label="gini = 0.0\nsamples = 1\nvalue = [0, 1]"] ;
253 -> 255 ;
256 [label="Musical <= 0.5\ngini = 0.457\nsamples = 34\nvalue = [22, 12]"] ;
242 -> 256 ;
257 [label="Duree <= 106.5\ngini = 0.43\nsamples = 32\nvalue = [22, 10]"] ;
256 -> 257 ;
258 [label="Duree <= 86.5\ngini = 0.355\nsamples = 26\nvalue = [20, 6]"] ;
257 -> 258 ;
259 [label="gini = 0.0\nsamples = 1\nvalue = [0, 1]"] ;
258 -> 259 ;
260 [label="gini = 0.32\nsamples = 25\nvalue = [20, 5]"] ;
258 -> 260 ;
261 [label="annee <= 1985.5\ngini = 0.444\nsamples = 6\nvalue = [2, 4]"] ;
257 -> 261 ;
262 [label="gini = 0.0\nsamples = 3\nvalue = [0, 3]"] ;
261 -> 262 ;
263 [label="gini = 0.444\nsamples = 3\nvalue = [2, 1]"] ;
261 -> 263 ;
264 [label="gini = 0.0\nsamples = 2\nvalue = [0, 2]"] ;
256 -> 264 ;
265 [label="gini = 0.0\nsamples = 3\nvalue = [0, 3]"] ;
241 -> 265 ;
266 [label="annee <= 1990.5\ngini = 0.32\nsamples = 25\nvalue = [20, 5]"] ;
232 -> 266 ;
267 [label="Duree <= 107.5\ngini = 0.117\nsamples = 16\nvalue = [15, 1]"] ;
266 -> 267 ;
268 [label="gini = 0.0\nsamples = 13\nvalue = [13, 0]"] ;
267 -> 268 ;
269 [label="budget <= 38500000.0\ngini = 0.444\nsamples = 3\nvalue = [2, 1]"] ;
267 -> 269 ;
270 [label="gini = 0.0\nsamples = 2\nvalue = [2, 0]"] ;
269 -> 270 ;
271 [label="gini = 0.0\nsamples = 1\nvalue = [0, 1]"] ;
269 -> 271 ;
272 [label="Duree <= 99.5\ngini = 0.494\nsamples = 9\nvalue = [5, 4]"] ;
266 -> 272 ;
273 [label="budget <= 39000000.0\ngini = 0.375\nsamples = 4\nvalue = [1, 3]"] ;
272 -> 273 ;
274 [label="gini = 0.0\nsamples = 3\nvalue = [0, 3]"] ;
273 -> 274 ;
275 [label="gini = 0.0\nsamples = 1\nvalue = [1, 0]"] ;
273 -> 275 ;
276 [label="Duree <= 109.5\ngini = 0.32\nsamples = 5\nvalue = [4, 1]"] ;
272 -> 276 ;
277 [label="gini = 0.0\nsamples = 4\nvalue = [4, 0]"] ;
276 -> 277 ;
278 [label="gini = 0.0\nsamples = 1\nvalue = [0, 1]"] ;
276 -> 278 ;
279 [label="Duree <= 101.5\ngini = 0.32\nsamples = 989\nvalue = [791, 198]"] ;
231 -> 279 ;
280 [label="budget <= 33950000.0\ngini = 0.28\nsamples = 702\nvalue = [584, 118]"] ;
279 -> 280 ;
281 [label="Documentary <= 0.5\ngini = 0.334\nsamples = 453\nvalue = [357, 96]"] ;
280 -> 281 ;
282 [label="annee <= 1999.5\ngini = 0.326\nsamples = 448\nvalue = [356, 92]"] ;
281 -> 282 ;
283 [label="Duree <= 91.5\ngini = 0.421\nsamples = 116\nvalue = [81, 35]"] ;
282 -> 283 ;
284 [label="budget <= 12500000.0\ngini = 0.268\nsamples = 44\nvalue = [37, 7]"] ;
283 -> 284 ;
285 [label="annee <= 1996.5\ngini = 0.444\nsamples = 15\nvalue = [10, 5]"] ;
284 -> 285 ;
286 [label="gini = 0.298\nsamples = 11\nvalue = [9, 2]"] ;
285 -> 286 ;
287 [label="gini = 0.375\nsamples = 4\nvalue = [1, 3]"] ;
285 -> 287 ;
288 [label="Duree <= 75.5\ngini = 0.128\nsamples = 29\nvalue = [27, 2]"] ;
284 -> 288 ;
289 [label="gini = 0.5\nsamples = 2\nvalue = [1, 1]"] ;
288 -> 289 ;
290 [label="gini = 0.071\nsamples = 27\nvalue = [26, 1]"] ;
288 -> 290 ;
291 [label="budget <= 16500000.0\ngini = 0.475\nsamples = 72\nvalue = [44, 28]"] ;
283 -> 291 ;
292 [label="budget <= 10500000.0\ngini = 0.495\nsamples = 31\nvalue = [14, 17]"] ;
291 -> 292 ;
293 [label="gini = 0.397\nsamples = 11\nvalue = [8, 3]"] ;
292 -> 293 ;
294 [label="gini = 0.42\nsamples = 20\nvalue = [6, 14]"] ;
292 -> 294 ;
295 [label="Comedy <= 0.5\ngini = 0.393\nsamples = 41\nvalue = [30, 11]"] ;
291 -> 295 ;
296 [label="gini = 0.0\nsamples = 12\nvalue = [12, 0]"] ;
295 -> 296 ;
297 [label="gini = 0.471\nsamples = 29\nvalue = [18, 11]"] ;
295 -> 297 ;
298 [label="Horror <= 0.5\ngini = 0.284\nsamples = 332\nvalue = [275, 57]"] ;
282 -> 298 ;
299 [label="Duree <= 100.5\ngini = 0.331\nsamples = 239\nvalue = [189, 50]"] ;
298 -> 299 ;
300 [label="Mystery <= 0.5\ngini = 0.317\nsamples = 228\nvalue = [183, 45]"] ;
299 -> 300 ;
301 [label="gini = 0.299\nsamples = 213\nvalue = [174, 39]"] ;
300 -> 301 ;
302 [label="gini = 0.48\nsamples = 15\nvalue = [9, 6]"] ;
300 -> 302 ;
303 [label="annee <= 2006.0\ngini = 0.496\nsamples = 11\nvalue = [6, 5]"] ;
299 -> 303 ;
304 [label="gini = 0.0\nsamples = 4\nvalue = [4, 0]"] ;
303 -> 304 ;
305 [label="gini = 0.408\nsamples = 7\nvalue = [2, 5]"] ;
303 -> 305 ;
306 [label="budget <= 21991000.0\ngini = 0.139\nsamples = 93\nvalue = [86, 7]"] ;
298 -> 306 ;
307 [label="Comedy <= 0.5\ngini = 0.029\nsamples = 69\nvalue = [68, 1]"] ;
306 -> 307 ;
308 [label="gini = 0.0\nsamples = 64\nvalue = [64, 0]"] ;
307 -> 308 ;
309 [label="gini = 0.32\nsamples = 5\nvalue = [4, 1]"] ;
307 -> 309 ;
310 [label="Thriller <= 0.5\ngini = 0.375\nsamples = 24\nvalue = [18, 6]"] ;
306 -> 310 ;
311 [label="gini = 0.496\nsamples = 11\nvalue = [6, 5]"] ;
310 -> 311 ;
312 [label="gini = 0.142\nsamples = 13\nvalue = [12, 1]"] ;
310 -> 312 ;
313 [label="Music <= 0.5\ngini = 0.32\nsamples = 5\nvalue = [1, 4]"] ;
281 -> 313 ;
314 [label="gini = 0.0\nsamples = 4\nvalue = [0, 4]"] ;
313 -> 314 ;
315 [label="gini = 0.0\nsamples = 1\nvalue = [1, 0]"] ;
313 -> 315 ;
316 [label="budget <= 177500000.0\ngini = 0.161\nsamples = 249\nvalue = [227, 22]"] ;
280 -> 316 ;
317 [label="Duree <= 99.5\ngini = 0.155\nsamples = 248\nvalue = [227, 21]"] ;
316 -> 317 ;
318 [label="Duree <= 94.5\ngini = 0.188\nsamples = 200\nvalue = [179, 21]"] ;
317 -> 318 ;
319 [label="Duree <= 86.5\ngini = 0.114\nsamples = 115\nvalue = [108, 7]"] ;
318 -> 319 ;
320 [label="Duree <= 85.5\ngini = 0.269\nsamples = 25\nvalue = [21, 4]"] ;
319 -> 320 ;
321 [label="gini = 0.1\nsamples = 19\nvalue = [18, 1]"] ;
320 -> 321 ;
322 [label="gini = 0.5\nsamples = 6\nvalue = [3, 3]"] ;
320 -> 322 ;
323 [label="annee <= 2008.5\ngini = 0.064\nsamples = 90\nvalue = [87, 3]"] ;
319 -> 323 ;
324 [label="gini = 0.0\nsamples = 64\nvalue = [64, 0]"] ;
323 -> 324 ;
325 [label="gini = 0.204\nsamples = 26\nvalue = [23, 3]"] ;
323 -> 325 ;
326 [label="War <= 0.5\ngini = 0.275\nsamples = 85\nvalue = [71, 14]"] ;
318 -> 326 ;
327 [label="Action <= 0.5\ngini = 0.262\nsamples = 84\nvalue = [71, 13]"] ;
326 -> 327 ;
328 [label="gini = 0.359\nsamples = 47\nvalue = [36, 11]"] ;
327 -> 328 ;
329 [label="gini = 0.102\nsamples = 37\nvalue = [35, 2]"] ;
327 -> 329 ;
330 [label="gini = 0.0\nsamples = 1\nvalue = [0, 1]"] ;
326 -> 330 ;
331 [label="gini = 0.0\nsamples = 48\nvalue = [48, 0]"] ;
317 -> 331 ;
332 [label="gini = 0.0\nsamples = 1\nvalue = [0, 1]"] ;
316 -> 332 ;
333 [label="budget <= 6950000.0\ngini = 0.402\nsamples = 287\nvalue = [207, 80]"] ;
279 -> 333 ;
334 [label="gini = 0.0\nsamples = 2\nvalue = [0, 2]"] ;
333 -> 334 ;
335 [label="budget <= 205000000.0\ngini = 0.398\nsamples = 285\nvalue = [207, 78]"] ;
333 -> 335 ;
336 [label="Crime <= 0.5\ngini = 0.393\nsamples = 283\nvalue = [207, 76]"] ;
335 -> 336 ;
337 [label="History <= 0.5\ngini = 0.366\nsamples = 224\nvalue = [170, 54]"] ;
336 -> 337 ;
338 [label="Musical <= 0.5\ngini = 0.362\nsamples = 223\nvalue = [170, 53]"] ;
337 -> 338 ;
339 [label="Duree <= 103.5\ngini = 0.356\nsamples = 220\nvalue = [169, 51]"] ;
338 -> 339 ;
340 [label="gini = 0.21\nsamples = 42\nvalue = [37, 5]"] ;
339 -> 340 ;
341 [label="gini = 0.383\nsamples = 178\nvalue = [132, 46]"] ;
339 -> 341 ;
342 [label="Romance <= 0.5\ngini = 0.444\nsamples = 3\nvalue = [1, 2]"] ;
338 -> 342 ;
343 [label="gini = 0.0\nsamples = 2\nvalue = [0, 2]"] ;
342 -> 343 ;
344 [label="gini = 0.0\nsamples = 1\nvalue = [1, 0]"] ;
342 -> 344 ;
345 [label="gini = 0.0\nsamples = 1\nvalue = [0, 1]"] ;
337 -> 345 ;
346 [label="budget <= 19500000.0\ngini = 0.468\nsamples = 59\nvalue = [37, 22]"] ;
336 -> 346 ;
347 [label="annee <= 2006.0\ngini = 0.444\nsamples = 15\nvalue = [5, 10]"] ;
346 -> 347 ;
348 [label="Fantasy <= 0.5\ngini = 0.198\nsamples = 9\nvalue = [1, 8]"] ;
347 -> 348 ;
349 [label="gini = 0.0\nsamples = 8\nvalue = [0, 8]"] ;
348 -> 349 ;
350 [label="gini = 0.0\nsamples = 1\nvalue = [1, 0]"] ;
348 -> 350 ;
351 [label="Duree <= 109.0\ngini = 0.444\nsamples = 6\nvalue = [4, 2]"] ;
347 -> 351 ;
352 [label="gini = 0.32\nsamples = 5\nvalue = [4, 1]"] ;
351 -> 352 ;
353 [label="gini = 0.0\nsamples = 1\nvalue = [0, 1]"] ;
351 -> 353 ;
354 [label="Thriller <= 0.5\ngini = 0.397\nsamples = 44\nvalue = [32, 12]"] ;
346 -> 354 ;
355 [label="budget <= 36000000.0\ngini = 0.497\nsamples = 13\nvalue = [6, 7]"] ;
354 -> 355 ;
356 [label="gini = 0.0\nsamples = 6\nvalue = [0, 6]"] ;
355 -> 356 ;
357 [label="gini = 0.245\nsamples = 7\nvalue = [6, 1]"] ;
355 -> 357 ;
358 [label="budget <= 30125000.0\ngini = 0.271\nsamples = 31\nvalue = [26, 5]"] ;
354 -> 358 ;
359 [label="gini = 0.0\nsamples = 15\nvalue = [15, 0]"] ;
358 -> 359 ;
360 [label="gini = 0.43\nsamples = 16\nvalue = [11, 5]"] ;
358 -> 360 ;
361 [label="gini = 0.0\nsamples = 2\nvalue = [0, 2]"] ;
335 -> 361 ;
362 [label="budget <= 19000000.0\ngini = 0.465\nsamples = 152\nvalue = [56, 96]"] ;
126 -> 362 ;
363 [label="Duree <= 95.5\ngini = 0.142\nsamples = 13\nvalue = [1, 12]"] ;
362 -> 363 ;
364 [label="gini = 0.0\nsamples = 10\nvalue = [0, 10]"] ;
363 -> 364 ;
365 [label="Fantasy <= 0.5\ngini = 0.444\nsamples = 3\nvalue = [1, 2]"] ;
363 -> 365 ;
366 [label="gini = 0.0\nsamples = 2\nvalue = [0, 2]"] ;
365 -> 366 ;
367 [label="gini = 0.0\nsamples = 1\nvalue = [1, 0]"] ;
365 -> 367 ;
368 [label="budget <= 82500000.0\ngini = 0.478\nsamples = 139\nvalue = [55, 84]"] ;
362 -> 368 ;
369 [label="Duree <= 95.5\ngini = 0.5\nsamples = 74\nvalue = [37, 37]"] ;
368 -> 369 ;
370 [label="annee <= 2000.5\ngini = 0.496\nsamples = 64\nvalue = [35, 29]"] ;
369 -> 370 ;
371 [label="Fantasy <= 0.5\ngini = 0.43\nsamples = 16\nvalue = [5, 11]"] ;
370 -> 371 ;
372 [label="gini = 0.0\nsamples = 5\nvalue = [0, 5]"] ;
371 -> 372 ;
373 [label="Duree <= 84.5\ngini = 0.496\nsamples = 11\nvalue = [5, 6]"] ;
371 -> 373 ;
374 [label="annee <= 1987.0\ngini = 0.32\nsamples = 5\nvalue = [1, 4]"] ;
373 -> 374 ;
375 [label="gini = 0.0\nsamples = 1\nvalue = [1, 0]"] ;
374 -> 375 ;
376 [label="gini = 0.0\nsamples = 4\nvalue = [0, 4]"] ;
374 -> 376 ;
377 [label="annee <= 1993.0\ngini = 0.444\nsamples = 6\nvalue = [4, 2]"] ;
373 -> 377 ;
378 [label="gini = 0.0\nsamples = 2\nvalue = [0, 2]"] ;
377 -> 378 ;
379 [label="gini = 0.0\nsamples = 4\nvalue = [4, 0]"] ;
377 -> 379 ;
380 [label="Duree <= 88.5\ngini = 0.469\nsamples = 48\nvalue = [30, 18]"] ;
370 -> 380 ;
381 [label="Fantasy <= 0.5\ngini = 0.5\nsamples = 26\nvalue = [13, 13]"] ;
380 -> 381 ;
382 [label="Duree <= 84.5\ngini = 0.444\nsamples = 18\nvalue = [6, 12]"] ;
381 -> 382 ;
383 [label="Duree <= 67.5\ngini = 0.408\nsamples = 7\nvalue = [5, 2]"] ;
382 -> 383 ;
384 [label="gini = 0.0\nsamples = 1\nvalue = [0, 1]"] ;
383 -> 384 ;
385 [label="budget <= 65000000.0\ngini = 0.278\nsamples = 6\nvalue = [5, 1]"] ;
383 -> 385 ;
386 [label="gini = 0.0\nsamples = 4\nvalue = [4, 0]"] ;
385 -> 386 ;
387 [label="gini = 0.5\nsamples = 2\nvalue = [1, 1]"] ;
385 -> 387 ;
388 [label="annee <= 2013.0\ngini = 0.165\nsamples = 11\nvalue = [1, 10]"] ;
382 -> 388 ;
389 [label="gini = 0.0\nsamples = 9\nvalue = [0, 9]"] ;
388 -> 389 ;
390 [label="budget <= 33500000.0\ngini = 0.5\nsamples = 2\nvalue = [1, 1]"] ;
388 -> 390 ;
391 [label="gini = 0.0\nsamples = 1\nvalue = [0, 1]"] ;
390 -> 391 ;
392 [label="gini = 0.0\nsamples = 1\nvalue = [1, 0]"] ;
390 -> 392 ;
393 [label="Musical <= 0.5\ngini = 0.219\nsamples = 8\nvalue = [7, 1]"] ;
381 -> 393 ;
394 [label="gini = 0.0\nsamples = 7\nvalue = [7, 0]"] ;
393 -> 394 ;
395 [label="gini = 0.0\nsamples = 1\nvalue = [0, 1]"] ;
393 -> 395 ;
396 [label="Fantasy <= 0.5\ngini = 0.351\nsamples = 22\nvalue = [17, 5]"] ;
380 -> 396 ;
397 [label="gini = 0.0\nsamples = 11\nvalue = [11, 0]"] ;
396 -> 397 ;
398 [label="budget <= 61500000.0\ngini = 0.496\nsamples = 11\nvalue = [6, 5]"] ;
396 -> 398 ;
399 [label="Adventure <= 0.5\ngini = 0.32\nsamples = 5\nvalue = [1, 4]"] ;
398 -> 399 ;
400 [label="gini = 0.0\nsamples = 1\nvalue = [1, 0]"] ;
399 -> 400 ;
401 [label="gini = 0.0\nsamples = 4\nvalue = [0, 4]"] ;
399 -> 401 ;
402 [label="Mystery <= 0.5\ngini = 0.278\nsamples = 6\nvalue = [5, 1]"] ;
398 -> 402 ;
403 [label="gini = 0.0\nsamples = 5\nvalue = [5, 0]"] ;
402 -> 403 ;
404 [label="gini = 0.0\nsamples = 1\nvalue = [0, 1]"] ;
402 -> 404 ;
405 [label="budget <= 28500000.0\ngini = 0.32\nsamples = 10\nvalue = [2, 8]"] ;
369 -> 405 ;
406 [label="gini = 0.0\nsamples = 1\nvalue = [1, 0]"] ;
405 -> 406 ;
407 [label="Duree <= 103.5\ngini = 0.198\nsamples = 9\nvalue = [1, 8]"] ;
405 -> 407 ;
408 [label="gini = 0.0\nsamples = 7\nvalue = [0, 7]"] ;
407 -> 408 ;
409 [label="Crime <= 0.5\ngini = 0.5\nsamples = 2\nvalue = [1, 1]"] ;
407 -> 409 ;
410 [label="gini = 0.0\nsamples = 1\nvalue = [1, 0]"] ;
409 -> 410 ;
411 [label="gini = 0.0\nsamples = 1\nvalue = [0, 1]"] ;
409 -> 411 ;
412 [label="Duree <= 84.5\ngini = 0.4\nsamples = 65\nvalue = [18, 47]"] ;
368 -> 412 ;
413 [label="Fantasy <= 0.5\ngini = 0.375\nsamples = 8\nvalue = [6, 2]"] ;
412 -> 413 ;
414 [label="gini = 0.0\nsamples = 5\nvalue = [5, 0]"] ;
413 -> 414 ;
415 [label="annee <= 2001.0\ngini = 0.444\nsamples = 3\nvalue = [1, 2]"] ;
413 -> 415 ;
416 [label="gini = 0.0\nsamples = 2\nvalue = [0, 2]"] ;
415 -> 416 ;
417 [label="gini = 0.0\nsamples = 1\nvalue = [1, 0]"] ;
415 -> 417 ;
418 [label="Duree <= 104.5\ngini = 0.332\nsamples = 57\nvalue = [12, 45]"] ;
412 -> 418 ;
419 [label="budget <= 101500000.0\ngini = 0.269\nsamples = 50\nvalue = [8, 42]"] ;
418 -> 419 ;
420 [label="gini = 0.0\nsamples = 11\nvalue = [0, 11]"] ;
419 -> 420 ;
421 [label="budget <= 112500000.0\ngini = 0.326\nsamples = 39\nvalue = [8, 31]"] ;
419 -> 421 ;
422 [label="Adventure <= 0.5\ngini = 0.444\nsamples = 3\nvalue = [2, 1]"] ;
421 -> 422 ;
423 [label="gini = 0.0\nsamples = 1\nvalue = [0, 1]"] ;
422 -> 423 ;
424 [label="gini = 0.0\nsamples = 2\nvalue = [2, 0]"] ;
422 -> 424 ;
425 [label="Sport <= 0.5\ngini = 0.278\nsamples = 36\nvalue = [6, 30]"] ;
421 -> 425 ;
426 [label="Duree <= 93.5\ngini = 0.245\nsamples = 35\nvalue = [5, 30]"] ;
425 -> 426 ;
427 [label="budget <= 149500000.0\ngini = 0.391\nsamples = 15\nvalue = [4, 11]"] ;
426 -> 427 ;
428 [label="gini = 0.0\nsamples = 8\nvalue = [0, 8]"] ;
427 -> 428 ;
429 [label="gini = 0.49\nsamples = 7\nvalue = [4, 3]"] ;
427 -> 429 ;
430 [label="Adventure <= 0.5\ngini = 0.095\nsamples = 20\nvalue = [1, 19]"] ;
426 -> 430 ;
431 [label="gini = 0.444\nsamples = 3\nvalue = [1, 2]"] ;
430 -> 431 ;
432 [label="gini = 0.0\nsamples = 17\nvalue = [0, 17]"] ;
430 -> 432 ;
433 [label="gini = 0.0\nsamples = 1\nvalue = [1, 0]"] ;
425 -> 433 ;
434 [label="Duree <= 106.5\ngini = 0.49\nsamples = 7\nvalue = [4, 3]"] ;
418 -> 434 ;
435 [label="gini = 0.0\nsamples = 3\nvalue = [3, 0]"] ;
434 -> 435 ;
436 [label="annee <= 2006.5\ngini = 0.375\nsamples = 4\nvalue = [1, 3]"] ;
434 -> 436 ;
437 [label="gini = 0.0\nsamples = 1\nvalue = [1, 0]"] ;
436 -> 437 ;
438 [label="gini = 0.0\nsamples = 3\nvalue = [0, 3]"] ;
436 -> 438 ;
439 [label="Duree <= 134.5\ngini = 0.49\nsamples = 512\nvalue = [219, 293]"] ;
125 -> 439 ;
440 [label="annee <= 1992.5\ngini = 0.5\nsamples = 398\nvalue = [193, 205]"] ;
439 -> 440 ;
441 [label="Family <= 0.5\ngini = 0.355\nsamples = 39\nvalue = [9, 30]"] ;
440 -> 441 ;
442 [label="Duree <= 115.5\ngini = 0.307\nsamples = 37\nvalue = [7, 30]"] ;
441 -> 442 ;
443 [label="annee <= 1987.5\ngini = 0.5\nsamples = 8\nvalue = [4, 4]"] ;
442 -> 443 ;
444 [label="gini = 0.0\nsamples = 2\nvalue = [0, 2]"] ;
443 -> 444 ;
445 [label="budget <= 26500000.0\ngini = 0.444\nsamples = 6\nvalue = [4, 2]"] ;
443 -> 445 ;
446 [label="gini = 0.0\nsamples = 3\nvalue = [3, 0]"] ;
445 -> 446 ;
447 [label="budget <= 31000000.0\ngini = 0.444\nsamples = 3\nvalue = [1, 2]"] ;
445 -> 447 ;
448 [label="gini = 0.0\nsamples = 1\nvalue = [0, 1]"] ;
447 -> 448 ;
449 [label="Comedy <= 0.5\ngini = 0.5\nsamples = 2\nvalue = [1, 1]"] ;
447 -> 449 ;
450 [label="gini = 0.0\nsamples = 1\nvalue = [0, 1]"] ;
449 -> 450 ;
451 [label="gini = 0.0\nsamples = 1\nvalue = [1, 0]"] ;
449 -> 451 ;
452 [label="Horror <= 0.5\ngini = 0.185\nsamples = 29\nvalue = [3, 26]"] ;
442 -> 452 ;
453 [label="annee <= 1985.5\ngini = 0.071\nsamples = 27\nvalue = [1, 26]"] ;
452 -> 453 ;
454 [label="Thriller <= 0.5\ngini = 0.5\nsamples = 2\nvalue = [1, 1]"] ;
453 -> 454 ;
455 [label="gini = 0.0\nsamples = 1\nvalue = [0, 1]"] ;
454 -> 455 ;
456 [label="gini = 0.0\nsamples = 1\nvalue = [1, 0]"] ;
454 -> 456 ;
457 [label="gini = 0.0\nsamples = 25\nvalue = [0, 25]"] ;
453 -> 457 ;
458 [label="gini = 0.0\nsamples = 2\nvalue = [2, 0]"] ;
452 -> 458 ;
459 [label="gini = 0.0\nsamples = 2\nvalue = [2, 0]"] ;
441 -> 459 ;
460 [label="budget <= 21170000.0\ngini = 0.5\nsamples = 359\nvalue = [184, 175]"] ;
440 -> 460 ;
461 [label="Horror <= 0.5\ngini = 0.448\nsamples = 56\nvalue = [19, 37]"] ;
460 -> 461 ;
462 [label="Action <= 0.5\ngini = 0.381\nsamples = 43\nvalue = [11, 32]"] ;
461 -> 462 ;
463 [label="budget <= 19105000.0\ngini = 0.313\nsamples = 36\nvalue = [7, 29]"] ;
462 -> 463 ;
464 [label="Comedy <= 0.5\ngini = 0.257\nsamples = 33\nvalue = [5, 28]"] ;
463 -> 464 ;
465 [label="Music <= 0.5\ngini = 0.391\nsamples = 15\nvalue = [4, 11]"] ;
464 -> 465 ;
466 [label="Duree <= 126.0\ngini = 0.337\nsamples = 14\nvalue = [3, 11]"] ;
465 -> 466 ;
467 [label="Mystery <= 0.5\ngini = 0.26\nsamples = 13\nvalue = [2, 11]"] ;
466 -> 467 ;
468 [label="gini = 0.0\nsamples = 8\nvalue = [0, 8]"] ;
467 -> 468 ;
469 [label="gini = 0.48\nsamples = 5\nvalue = [2, 3]"] ;
467 -> 469 ;
470 [label="gini = 0.0\nsamples = 1\nvalue = [1, 0]"] ;
466 -> 470 ;
471 [label="gini = 0.0\nsamples = 1\nvalue = [1, 0]"] ;
465 -> 471 ;
472 [label="Fantasy <= 0.5\ngini = 0.105\nsamples = 18\nvalue = [1, 17]"] ;
464 -> 472 ;
473 [label="gini = 0.0\nsamples = 14\nvalue = [0, 14]"] ;
472 -> 473 ;
474 [label="Romance <= 0.5\ngini = 0.375\nsamples = 4\nvalue = [1, 3]"] ;
472 -> 474 ;
475 [label="gini = 0.0\nsamples = 3\nvalue = [0, 3]"] ;
474 -> 475 ;
476 [label="gini = 0.0\nsamples = 1\nvalue = [1, 0]"] ;
474 -> 476 ;
477 [label="annee <= 2009.0\ngini = 0.444\nsamples = 3\nvalue = [2, 1]"] ;
463 -> 477 ;
478 [label="gini = 0.0\nsamples = 1\nvalue = [0, 1]"] ;
477 -> 478 ;
479 [label="gini = 0.0\nsamples = 2\nvalue = [2, 0]"] ;
477 -> 479 ;
480 [label="Duree <= 121.5\ngini = 0.49\nsamples = 7\nvalue = [4, 3]"] ;
462 -> 480 ;
481 [label="budget <= 11120000.0\ngini = 0.375\nsamples = 4\nvalue = [1, 3]"] ;
480 -> 481 ;
482 [label="gini = 0.0\nsamples = 1\nvalue = [1, 0]"] ;
481 -> 482 ;
483 [label="gini = 0.0\nsamples = 3\nvalue = [0, 3]"] ;
481 -> 483 ;
484 [label="gini = 0.0\nsamples = 3\nvalue = [3, 0]"] ;
480 -> 484 ;
485 [label="budget <= 16500000.0\ngini = 0.473\nsamples = 13\nvalue = [8, 5]"] ;
461 -> 485 ;
486 [label="Duree <= 116.5\ngini = 0.397\nsamples = 11\nvalue = [8, 3]"] ;
485 -> 486 ;
487 [label="Action <= 0.5\ngini = 0.5\nsamples = 6\nvalue = [3, 3]"] ;
486 -> 487 ;
488 [label="annee <= 2009.5\ngini = 0.375\nsamples = 4\nvalue = [1, 3]"] ;
487 -> 488 ;
489 [label="gini = 0.0\nsamples = 3\nvalue = [0, 3]"] ;
488 -> 489 ;
490 [label="gini = 0.0\nsamples = 1\nvalue = [1, 0]"] ;
488 -> 490 ;
491 [label="gini = 0.0\nsamples = 2\nvalue = [2, 0]"] ;
487 -> 491 ;
492 [label="gini = 0.0\nsamples = 5\nvalue = [5, 0]"] ;
486 -> 492 ;
493 [label="gini = 0.0\nsamples = 2\nvalue = [0, 2]"] ;
485 -> 493 ;
494 [label="annee <= 2005.5\ngini = 0.496\nsamples = 303\nvalue = [165, 138]"] ;
460 -> 494 ;
495 [label="Comedy <= 0.5\ngini = 0.465\nsamples = 147\nvalue = [93, 54]"] ;
494 -> 495 ;
496 [label="budget <= 49000000.0\ngini = 0.489\nsamples = 101\nvalue = [58, 43]"] ;
495 -> 496 ;
497 [label="annee <= 2000.5\ngini = 0.488\nsamples = 26\nvalue = [11, 15]"] ;
496 -> 497 ;
498 [label="annee <= 1999.5\ngini = 0.494\nsamples = 18\nvalue = [10, 8]"] ;
497 -> 498 ;
499 [label="Duree <= 112.5\ngini = 0.498\nsamples = 15\nvalue = [7, 8]"] ;
498 -> 499 ;
500 [label="Sci-Fi <= 0.5\ngini = 0.32\nsamples = 5\nvalue = [4, 1]"] ;
499 -> 500 ;
501 [label="gini = 0.0\nsamples = 3\nvalue = [3, 0]"] ;
500 -> 501 ;
502 [label="gini = 0.5\nsamples = 2\nvalue = [1, 1]"] ;
500 -> 502 ;
503 [label="annee <= 1995.5\ngini = 0.42\nsamples = 10\nvalue = [3, 7]"] ;
499 -> 503 ;
504 [label="gini = 0.0\nsamples = 4\nvalue = [0, 4]"] ;
503 -> 504 ;
505 [label="gini = 0.5\nsamples = 6\nvalue = [3, 3]"] ;
503 -> 505 ;
506 [label="gini = 0.0\nsamples = 3\nvalue = [3, 0]"] ;
498 -> 506 ;
507 [label="annee <= 2004.0\ngini = 0.219\nsamples = 8\nvalue = [1, 7]"] ;
497 -> 507 ;
508 [label="gini = 0.0\nsamples = 6\nvalue = [0, 6]"] ;
507 -> 508 ;
509 [label="Adventure <= 0.5\ngini = 0.5\nsamples = 2\nvalue = [1, 1]"] ;
507 -> 509 ;
510 [label="gini = 0.0\nsamples = 1\nvalue = [1, 0]"] ;
509 -> 510 ;
511 [label="gini = 0.0\nsamples = 1\nvalue = [0, 1]"] ;
509 -> 511 ;
512 [label="War <= 0.5\ngini = 0.468\nsamples = 75\nvalue = [47, 28]"] ;
496 -> 512 ;
513 [label="Horror <= 0.5\ngini = 0.459\nsamples = 73\nvalue = [47, 26]"] ;
512 -> 513 ;
514 [label="annee <= 2004.5\ngini = 0.472\nsamples = 68\nvalue = [42, 26]"] ;
513 -> 514 ;
515 [label="annee <= 2000.5\ngini = 0.485\nsamples = 63\nvalue = [37, 26]"] ;
514 -> 515 ;
516 [label="gini = 0.431\nsamples = 35\nvalue = [24, 11]"] ;
515 -> 516 ;
517 [label="gini = 0.497\nsamples = 28\nvalue = [13, 15]"] ;
515 -> 517 ;
518 [label="gini = 0.0\nsamples = 5\nvalue = [5, 0]"] ;
514 -> 518 ;
519 [label="gini = 0.0\nsamples = 5\nvalue = [5, 0]"] ;
513 -> 519 ;
520 [label="gini = 0.0\nsamples = 2\nvalue = [0, 2]"] ;
512 -> 520 ;
521 [label="annee <= 1998.5\ngini = 0.364\nsamples = 46\nvalue = [35, 11]"] ;
495 -> 521 ;
522 [label="annee <= 1993.5\ngini = 0.5\nsamples = 12\nvalue = [6, 6]"] ;
521 -> 522 ;
523 [label="gini = 0.0\nsamples = 2\nvalue = [2, 0]"] ;
522 -> 523 ;
524 [label="budget <= 35500000.0\ngini = 0.48\nsamples = 10\nvalue = [4, 6]"] ;
522 -> 524 ;
525 [label="Musical <= 0.5\ngini = 0.32\nsamples = 5\nvalue = [1, 4]"] ;
524 -> 525 ;
526 [label="gini = 0.0\nsamples = 4\nvalue = [0, 4]"] ;
525 -> 526 ;
527 [label="gini = 0.0\nsamples = 1\nvalue = [1, 0]"] ;
525 -> 527 ;
528 [label="Duree <= 120.0\ngini = 0.48\nsamples = 5\nvalue = [3, 2]"] ;
524 -> 528 ;
529 [label="gini = 0.0\nsamples = 2\nvalue = [2, 0]"] ;
528 -> 529 ;
530 [label="budget <= 86500000.0\ngini = 0.444\nsamples = 3\nvalue = [1, 2]"] ;
528 -> 530 ;
531 [label="gini = 0.0\nsamples = 2\nvalue = [0, 2]"] ;
530 -> 531 ;
532 [label="gini = 0.0\nsamples = 1\nvalue = [1, 0]"] ;
530 -> 532 ;
533 [label="Duree <= 127.5\ngini = 0.251\nsamples = 34\nvalue = [29, 5]"] ;
521 -> 533 ;
534 [label="Musical <= 0.5\ngini = 0.175\nsamples = 31\nvalue = [28, 3]"] ;
533 -> 534 ;
535 [label="budget <= 140000000.0\ngini = 0.124\nsamples = 30\nvalue = [28, 2]"] ;
534 -> 535 ;
536 [label="annee <= 2004.5\ngini = 0.067\nsamples = 29\nvalue = [28, 1]"] ;
535 -> 536 ;
537 [label="gini = 0.0\nsamples = 21\nvalue = [21, 0]"] ;
536 -> 537 ;
538 [label="gini = 0.219\nsamples = 8\nvalue = [7, 1]"] ;
536 -> 538 ;
539 [label="gini = 0.0\nsamples = 1\nvalue = [0, 1]"] ;
535 -> 539 ;
540 [label="gini = 0.0\nsamples = 1\nvalue = [0, 1]"] ;
534 -> 540 ;
541 [label="Musical <= 0.5\ngini = 0.444\nsamples = 3\nvalue = [1, 2]"] ;
533 -> 541 ;
542 [label="gini = 0.0\nsamples = 2\nvalue = [0, 2]"] ;
541 -> 542 ;
543 [label="gini = 0.0\nsamples = 1\nvalue = [1, 0]"] ;
541 -> 543 ;
544 [label="Action <= 0.5\ngini = 0.497\nsamples = 156\nvalue = [72, 84]"] ;
494 -> 544 ;
545 [label="annee <= 2007.5\ngini = 0.465\nsamples = 57\nvalue = [36, 21]"] ;
544 -> 545 ;
546 [label="Duree <= 116.5\ngini = 0.444\nsamples = 12\nvalue = [4, 8]"] ;
545 -> 546 ;
547 [label="Adventure <= 0.5\ngini = 0.5\nsamples = 8\nvalue = [4, 4]"] ;
546 -> 547 ;
548 [label="Duree <= 114.5\ngini = 0.444\nsamples = 6\nvalue = [2, 4]"] ;
547 -> 548 ;
549 [label="gini = 0.0\nsamples = 4\nvalue = [0, 4]"] ;
548 -> 549 ;
550 [label="gini = 0.0\nsamples = 2\nvalue = [2, 0]"] ;
548 -> 550 ;
551 [label="gini = 0.0\nsamples = 2\nvalue = [2, 0]"] ;
547 -> 551 ;
552 [label="gini = 0.0\nsamples = 4\nvalue = [0, 4]"] ;
546 -> 552 ;
553 [label="Duree <= 119.5\ngini = 0.411\nsamples = 45\nvalue = [32, 13]"] ;
545 -> 553 ;
554 [label="Music <= 0.5\ngini = 0.285\nsamples = 29\nvalue = [24, 5]"] ;
553 -> 554 ;
555 [label="Sci-Fi <= 0.5\ngini = 0.198\nsamples = 27\nvalue = [24, 3]"] ;
554 -> 555 ;
556 [label="annee <= 2011.5\ngini = 0.147\nsamples = 25\nvalue = [23, 2]"] ;
555 -> 556 ;
557 [label="gini = 0.0\nsamples = 13\nvalue = [13, 0]"] ;
556 -> 557 ;
558 [label="gini = 0.278\nsamples = 12\nvalue = [10, 2]"] ;
556 -> 558 ;
559 [label="Duree <= 115.5\ngini = 0.5\nsamples = 2\nvalue = [1, 1]"] ;
555 -> 559 ;
560 [label="gini = 0.0\nsamples = 1\nvalue = [0, 1]"] ;
559 -> 560 ;
561 [label="gini = 0.0\nsamples = 1\nvalue = [1, 0]"] ;
559 -> 561 ;
562 [label="gini = 0.0\nsamples = 2\nvalue = [0, 2]"] ;
554 -> 562 ;
563 [label="Duree <= 124.5\ngini = 0.5\nsamples = 16\nvalue = [8, 8]"] ;
553 -> 563 ;
564 [label="Crime <= 0.5\ngini = 0.278\nsamples = 6\nvalue = [1, 5]"] ;
563 -> 564 ;
565 [label="gini = 0.0\nsamples = 5\nvalue = [0, 5]"] ;
564 -> 565 ;
566 [label="gini = 0.0\nsamples = 1\nvalue = [1, 0]"] ;
564 -> 566 ;
567 [label="Mystery <= 0.5\ngini = 0.42\nsamples = 10\nvalue = [7, 3]"] ;
563 -> 567 ;
568 [label="annee <= 2014.5\ngini = 0.346\nsamples = 9\nvalue = [7, 2]"] ;
567 -> 568 ;
569 [label="gini = 0.219\nsamples = 8\nvalue = [7, 1]"] ;
568 -> 569 ;
570 [label="gini = 0.0\nsamples = 1\nvalue = [0, 1]"] ;
568 -> 570 ;
571 [label="gini = 0.0\nsamples = 1\nvalue = [0, 1]"] ;
567 -> 571 ;
572 [label="Romance <= 0.5\ngini = 0.463\nsamples = 99\nvalue = [36, 63]"] ;
544 -> 572 ;
573 [label="Thriller <= 0.5\ngini = 0.447\nsamples = 92\nvalue = [31, 61]"] ;
572 -> 573 ;
574 [label="annee <= 2008.5\ngini = 0.363\nsamples = 42\nvalue = [10, 32]"] ;
573 -> 574 ;
575 [label="budget <= 145000000.0\ngini = 0.496\nsamples = 11\nvalue = [5, 6]"] ;
574 -> 575 ;
576 [label="Fantasy <= 0.5\ngini = 0.444\nsamples = 9\nvalue = [3, 6]"] ;
575 -> 576 ;
577 [label="gini = 0.5\nsamples = 6\nvalue = [3, 3]"] ;
576 -> 577 ;
578 [label="gini = 0.0\nsamples = 3\nvalue = [0, 3]"] ;
576 -> 578 ;
579 [label="gini = 0.0\nsamples = 2\nvalue = [2, 0]"] ;
575 -> 579 ;
580 [label="annee <= 2014.5\ngini = 0.271\nsamples = 31\nvalue = [5, 26]"] ;
574 -> 580 ;
581 [label="budget <= 80000000.0\ngini = 0.204\nsamples = 26\nvalue = [3, 23]"] ;
580 -> 581 ;
582 [label="gini = 0.444\nsamples = 9\nvalue = [3, 6]"] ;
581 -> 582 ;
583 [label="gini = 0.0\nsamples = 17\nvalue = [0, 17]"] ;
581 -> 583 ;
584 [label="budget <= 153000000.0\ngini = 0.48\nsamples = 5\nvalue = [2, 3]"] ;
580 -> 584 ;
585 [label="gini = 0.0\nsamples = 3\nvalue = [0, 3]"] ;
584 -> 585 ;
586 [label="gini = 0.0\nsamples = 2\nvalue = [2, 0]"] ;
584 -> 586 ;
587 [label="annee <= 2014.5\ngini = 0.487\nsamples = 50\nvalue = [21, 29]"] ;
573 -> 587 ;
588 [label="Sci-Fi <= 0.5\ngini = 0.499\nsamples = 44\nvalue = [21, 23]"] ;
587 -> 588 ;
589 [label="Fantasy <= 0.5\ngini = 0.452\nsamples = 29\nvalue = [10, 19]"] ;
588 -> 589 ;
590 [label="gini = 0.417\nsamples = 27\nvalue = [8, 19]"] ;
589 -> 590 ;
591 [label="gini = 0.0\nsamples = 2\nvalue = [2, 0]"] ;
589 -> 591 ;
592 [label="budget <= 36000000.0\ngini = 0.391\nsamples = 15\nvalue = [11, 4]"] ;
588 -> 592 ;
593 [label="gini = 0.444\nsamples = 3\nvalue = [1, 2]"] ;
592 -> 593 ;
594 [label="gini = 0.278\nsamples = 12\nvalue = [10, 2]"] ;
592 -> 594 ;
595 [label="gini = 0.0\nsamples = 6\nvalue = [0, 6]"] ;
587 -> 595 ;
596 [label="Fantasy <= 0.5\ngini = 0.408\nsamples = 7\nvalue = [5, 2]"] ;
572 -> 596 ;
597 [label="gini = 0.0\nsamples = 4\nvalue = [4, 0]"] ;
596 -> 597 ;
598 [label="Duree <= 123.0\ngini = 0.444\nsamples = 3\nvalue = [1, 2]"] ;
596 -> 598 ;
599 [label="gini = 0.0\nsamples = 2\nvalue = [0, 2]"] ;
598 -> 599 ;
600 [label="gini = 0.0\nsamples = 1\nvalue = [1, 0]"] ;
598 -> 600 ;
601 [label="Sci-Fi <= 0.5\ngini = 0.352\nsamples = 114\nvalue = [26, 88]"] ;
439 -> 601 ;
602 [label="Sport <= 0.5\ngini = 0.248\nsamples = 69\nvalue = [10, 59]"] ;
601 -> 602 ;
603 [label="Duree <= 156.5\ngini = 0.23\nsamples = 68\nvalue = [9, 59]"] ;
602 -> 603 ;
604 [label="Duree <= 145.0\ngini = 0.305\nsamples = 48\nvalue = [9, 39]"] ;
603 -> 604 ;
605 [label="annee <= 2012.5\ngini = 0.128\nsamples = 29\nvalue = [2, 27]"] ;
604 -> 605 ;
606 [label="gini = 0.0\nsamples = 26\nvalue = [0, 26]"] ;
605 -> 606 ;
607 [label="Action <= 0.5\ngini = 0.444\nsamples = 3\nvalue = [2, 1]"] ;
605 -> 607 ;
608 [label="gini = 0.0\nsamples = 2\nvalue = [2, 0]"] ;
607 -> 608 ;
609 [label="gini = 0.0\nsamples = 1\nvalue = [0, 1]"] ;
607 -> 609 ;
610 [label="Western <= 0.5\ngini = 0.465\nsamples = 19\nvalue = [7, 12]"] ;
604 -> 610 ;
611 [label="annee <= 2007.5\ngini = 0.415\nsamples = 17\nvalue = [5, 12]"] ;
610 -> 611 ;
612 [label="annee <= 2002.5\ngini = 0.5\nsamples = 10\nvalue = [5, 5]"] ;
611 -> 612 ;
613 [label="gini = 0.0\nsamples = 3\nvalue = [0, 3]"] ;
612 -> 613 ;
614 [label="Duree <= 151.5\ngini = 0.408\nsamples = 7\nvalue = [5, 2]"] ;
612 -> 614 ;
615 [label="Adventure <= 0.5\ngini = 0.48\nsamples = 5\nvalue = [3, 2]"] ;
614 -> 615 ;
616 [label="gini = 0.375\nsamples = 4\nvalue = [3, 1]"] ;
615 -> 616 ;
617 [label="gini = 0.0\nsamples = 1\nvalue = [0, 1]"] ;
615 -> 617 ;
618 [label="gini = 0.0\nsamples = 2\nvalue = [2, 0]"] ;
614 -> 618 ;
619 [label="gini = 0.0\nsamples = 7\nvalue = [0, 7]"] ;
611 -> 619 ;
620 [label="gini = 0.0\nsamples = 2\nvalue = [2, 0]"] ;
610 -> 620 ;
621 [label="gini = 0.0\nsamples = 20\nvalue = [0, 20]"] ;
603 -> 621 ;
622 [label="gini = 0.0\nsamples = 1\nvalue = [1, 0]"] ;
602 -> 622 ;
623 [label="budget <= 65500000.0\ngini = 0.458\nsamples = 45\nvalue = [16, 29]"] ;
601 -> 623 ;
624 [label="annee <= 1986.5\ngini = 0.486\nsamples = 12\nvalue = [7, 5]"] ;
623 -> 624 ;
625 [label="gini = 0.0\nsamples = 2\nvalue = [0, 2]"] ;
624 -> 625 ;
626 [label="budget <= 9250000.0\ngini = 0.42\nsamples = 10\nvalue = [7, 3]"] ;
624 -> 626 ;
627 [label="gini = 0.0\nsamples = 1\nvalue = [0, 1]"] ;
626 -> 627 ;
628 [label="Duree <= 171.0\ngini = 0.346\nsamples = 9\nvalue = [7, 2]"] ;
626 -> 628 ;
629 [label="budget <= 61500000.0\ngini = 0.219\nsamples = 8\nvalue = [7, 1]"] ;
628 -> 629 ;
630 [label="gini = 0.0\nsamples = 6\nvalue = [6, 0]"] ;
629 -> 630 ;
631 [label="annee <= 1995.5\ngini = 0.5\nsamples = 2\nvalue = [1, 1]"] ;
629 -> 631 ;
632 [label="gini = 0.0\nsamples = 1\nvalue = [1, 0]"] ;
631 -> 632 ;
633 [label="gini = 0.0\nsamples = 1\nvalue = [0, 1]"] ;
631 -> 633 ;
634 [label="gini = 0.0\nsamples = 1\nvalue = [0, 1]"] ;
628 -> 634 ;
635 [label="budget <= 172500000.0\ngini = 0.397\nsamples = 33\nvalue = [9, 24]"] ;
623 -> 635 ;
636 [label="annee <= 2004.0\ngini = 0.255\nsamples = 20\nvalue = [3, 17]"] ;
635 -> 636 ;
637 [label="Duree <= 140.0\ngini = 0.42\nsamples = 10\nvalue = [3, 7]"] ;
636 -> 637 ;
638 [label="annee <= 1997.5\ngini = 0.48\nsamples = 5\nvalue = [3, 2]"] ;
637 -> 638 ;
639 [label="gini = 0.0\nsamples = 1\nvalue = [0, 1]"] ;
638 -> 639 ;
640 [label="budget <= 143500000.0\ngini = 0.375\nsamples = 4\nvalue = [3, 1]"] ;
638 -> 640 ;
641 [label="gini = 0.0\nsamples = 3\nvalue = [3, 0]"] ;
640 -> 641 ;
642 [label="gini = 0.0\nsamples = 1\nvalue = [0, 1]"] ;
640 -> 642 ;
643 [label="gini = 0.0\nsamples = 5\nvalue = [0, 5]"] ;
637 -> 643 ;
644 [label="gini = 0.0\nsamples = 10\nvalue = [0, 10]"] ;
636 -> 644 ;
645 [label="annee <= 2011.5\ngini = 0.497\nsamples = 13\nvalue = [6, 7]"] ;
635 -> 645 ;
646 [label="Duree <= 177.0\ngini = 0.278\nsamples = 6\nvalue = [5, 1]"] ;
645 -> 646 ;
647 [label="gini = 0.0\nsamples = 5\nvalue = [5, 0]"] ;
646 -> 647 ;
648 [label="gini = 0.0\nsamples = 1\nvalue = [0, 1]"] ;
646 -> 648 ;
649 [label="annee <= 2013.5\ngini = 0.245\nsamples = 7\nvalue = [1, 6]"] ;
645 -> 649 ;
650 [label="gini = 0.0\nsamples = 3\nvalue = [0, 3]"] ;
649 -> 650 ;
651 [label="Duree <= 157.0\ngini = 0.375\nsamples = 4\nvalue = [1, 3]"] ;
649 -> 651 ;
652 [label="gini = 0.0\nsamples = 2\nvalue = [0, 2]"] ;
651 -> 652 ;
653 [label="Duree <= 180.0\ngini = 0.5\nsamples = 2\nvalue = [1, 1]"] ;
651 -> 653 ;
654 [label="gini = 0.0\nsamples = 1\nvalue = [1, 0]"] ;
653 -> 654 ;
655 [label="gini = 0.0\nsamples = 1\nvalue = [0, 1]"] ;
653 -> 655 ;
656 [label="budget <= 15660000.0\ngini = 0.411\nsamples = 2269\nvalue = [655, 1614]"] ;
0 -> 656 [labeldistance=2.5, labelangle=-45, headlabel="False"] ;
657 [label="Duree <= 104.5\ngini = 0.283\nsamples = 1113\nvalue = [190, 923]"] ;
656 -> 657 ;
658 [label="budget <= 2750000.0\ngini = 0.387\nsamples = 480\nvalue = [126, 354]"] ;
657 -> 658 ;
659 [label="annee <= 2004.5\ngini = 0.209\nsamples = 177\nvalue = [21, 156]"] ;
658 -> 659 ;
660 [label="Music <= 0.5\ngini = 0.069\nsamples = 112\nvalue = [4, 108]"] ;
659 -> 660 ;
661 [label="Biography <= 0.5\ngini = 0.053\nsamples = 110\nvalue = [3, 107]"] ;
660 -> 661 ;
662 [label="budget <= 1140000.0\ngini = 0.037\nsamples = 106\nvalue = [2, 104]"] ;
661 -> 662 ;
663 [label="gini = 0.0\nsamples = 72\nvalue = [0, 72]"] ;
662 -> 663 ;
664 [label="budget <= 1225000.0\ngini = 0.111\nsamples = 34\nvalue = [2, 32]"] ;
662 -> 664 ;
665 [label="Duree <= 92.0\ngini = 0.444\nsamples = 3\nvalue = [1, 2]"] ;
664 -> 665 ;
666 [label="gini = 0.0\nsamples = 1\nvalue = [1, 0]"] ;
665 -> 666 ;
667 [label="gini = 0.0\nsamples = 2\nvalue = [0, 2]"] ;
665 -> 667 ;
668 [label="Thriller <= 0.5\ngini = 0.062\nsamples = 31\nvalue = [1, 30]"] ;
664 -> 668 ;
669 [label="gini = 0.0\nsamples = 25\nvalue = [0, 25]"] ;
668 -> 669 ;
670 [label="annee <= 1982.0\ngini = 0.278\nsamples = 6\nvalue = [1, 5]"] ;
668 -> 670 ;
671 [label="gini = 0.0\nsamples = 5\nvalue = [0, 5]"] ;
670 -> 671 ;
672 [label="gini = 0.0\nsamples = 1\nvalue = [1, 0]"] ;
670 -> 672 ;
673 [label="Horror <= 0.5\ngini = 0.375\nsamples = 4\nvalue = [1, 3]"] ;
661 -> 673 ;
674 [label="gini = 0.0\nsamples = 3\nvalue = [0, 3]"] ;
673 -> 674 ;
675 [label="gini = 0.0\nsamples = 1\nvalue = [1, 0]"] ;
673 -> 675 ;
676 [label="Thriller <= 0.5\ngini = 0.5\nsamples = 2\nvalue = [1, 1]"] ;
660 -> 676 ;
677 [label="gini = 0.0\nsamples = 1\nvalue = [1, 0]"] ;
676 -> 677 ;
678 [label="gini = 0.0\nsamples = 1\nvalue = [0, 1]"] ;
676 -> 678 ;
679 [label="Horror <= 0.5\ngini = 0.386\nsamples = 65\nvalue = [17, 48]"] ;
659 -> 679 ;
680 [label="budget <= 11085.0\ngini = 0.306\nsamples = 53\nvalue = [10, 43]"] ;
679 -> 680 ;
681 [label="gini = 0.0\nsamples = 1\nvalue = [1, 0]"] ;
680 -> 681 ;
682 [label="Duree <= 78.5\ngini = 0.286\nsamples = 52\nvalue = [9, 43]"] ;
680 -> 682 ;
683 [label="gini = 0.0\nsamples = 1\nvalue = [1, 0]"] ;
682 -> 683 ;
684 [label="Thriller <= 0.5\ngini = 0.265\nsamples = 51\nvalue = [8, 43]"] ;
682 -> 684 ;
685 [label="Duree <= 89.5\ngini = 0.206\nsamples = 43\nvalue = [5, 38]"] ;
684 -> 685 ;
686 [label="gini = 0.0\nsamples = 11\nvalue = [0, 11]"] ;
685 -> 686 ;
687 [label="budget <= 2317500.0\ngini = 0.264\nsamples = 32\nvalue = [5, 27]"] ;
685 -> 687 ;
688 [label="Duree <= 94.5\ngini = 0.231\nsamples = 30\nvalue = [4, 26]"] ;
687 -> 688 ;
689 [label="budget <= 487500.0\ngini = 0.397\nsamples = 11\nvalue = [3, 8]"] ;
688 -> 689 ;
690 [label="gini = 0.0\nsamples = 4\nvalue = [0, 4]"] ;
689 -> 690 ;
691 [label="gini = 0.49\nsamples = 7\nvalue = [3, 4]"] ;
689 -> 691 ;
692 [label="budget <= 124300.0\ngini = 0.1\nsamples = 19\nvalue = [1, 18]"] ;
688 -> 692 ;
693 [label="gini = 0.5\nsamples = 2\nvalue = [1, 1]"] ;
692 -> 693 ;
694 [label="gini = 0.0\nsamples = 17\nvalue = [0, 17]"] ;
692 -> 694 ;
695 [label="Comedy <= 0.5\ngini = 0.5\nsamples = 2\nvalue = [1, 1]"] ;
687 -> 695 ;
696 [label="gini = 0.0\nsamples = 1\nvalue = [1, 0]"] ;
695 -> 696 ;
697 [label="gini = 0.0\nsamples = 1\nvalue = [0, 1]"] ;
695 -> 697 ;
698 [label="budget <= 925000.0\ngini = 0.469\nsamples = 8\nvalue = [3, 5]"] ;
684 -> 698 ;
699 [label="gini = 0.0\nsamples = 3\nvalue = [3, 0]"] ;
698 -> 699 ;
700 [label="gini = 0.0\nsamples = 5\nvalue = [0, 5]"] ;
698 -> 700 ;
701 [label="Duree <= 100.5\ngini = 0.486\nsamples = 12\nvalue = [7, 5]"] ;
679 -> 701 ;
702 [label="Comedy <= 0.5\ngini = 0.42\nsamples = 10\nvalue = [7, 3]"] ;
701 -> 702 ;
703 [label="budget <= 1900000.0\ngini = 0.245\nsamples = 7\nvalue = [6, 1]"] ;
702 -> 703 ;
704 [label="gini = 0.0\nsamples = 6\nvalue = [6, 0]"] ;
703 -> 704 ;
705 [label="gini = 0.0\nsamples = 1\nvalue = [0, 1]"] ;
703 -> 705 ;
706 [label="annee <= 2013.5\ngini = 0.444\nsamples = 3\nvalue = [1, 2]"] ;
702 -> 706 ;
707 [label="gini = 0.0\nsamples = 2\nvalue = [0, 2]"] ;
706 -> 707 ;
708 [label="gini = 0.0\nsamples = 1\nvalue = [1, 0]"] ;
706 -> 708 ;
709 [label="gini = 0.0\nsamples = 2\nvalue = [0, 2]"] ;
701 -> 709 ;
710 [label="Thriller <= 0.5\ngini = 0.453\nsamples = 303\nvalue = [105, 198]"] ;
658 -> 710 ;
711 [label="Animation <= 0.5\ngini = 0.411\nsamples = 218\nvalue = [63, 155]"] ;
710 -> 711 ;
712 [label="Adventure <= 0.5\ngini = 0.42\nsamples = 210\nvalue = [63, 147]"] ;
711 -> 712 ;
713 [label="annee <= 2009.5\ngini = 0.408\nsamples = 196\nvalue = [56, 140]"] ;
712 -> 713 ;
714 [label="Comedy <= 0.5\ngini = 0.366\nsamples = 137\nvalue = [33, 104]"] ;
713 -> 714 ;
715 [label="Music <= 0.5\ngini = 0.278\nsamples = 66\nvalue = [11, 55]"] ;
714 -> 715 ;
716 [label="budget <= 5907000.0\ngini = 0.231\nsamples = 60\nvalue = [8, 52]"] ;
715 -> 716 ;
717 [label="gini = 0.0\nsamples = 20\nvalue = [0, 20]"] ;
716 -> 717 ;
718 [label="annee <= 2006.5\ngini = 0.32\nsamples = 40\nvalue = [8, 32]"] ;
716 -> 718 ;
719 [label="annee <= 2000.5\ngini = 0.391\nsamples = 30\nvalue = [8, 22]"] ;
718 -> 719 ;
720 [label="gini = 0.198\nsamples = 18\nvalue = [2, 16]"] ;
719 -> 720 ;
721 [label="gini = 0.5\nsamples = 12\nvalue = [6, 6]"] ;
719 -> 721 ;
722 [label="gini = 0.0\nsamples = 10\nvalue = [0, 10]"] ;
718 -> 722 ;
723 [label="Duree <= 96.0\ngini = 0.5\nsamples = 6\nvalue = [3, 3]"] ;
715 -> 723 ;
724 [label="gini = 0.0\nsamples = 2\nvalue = [2, 0]"] ;
723 -> 724 ;
725 [label="Crime <= 0.5\ngini = 0.375\nsamples = 4\nvalue = [1, 3]"] ;
723 -> 725 ;
726 [label="gini = 0.0\nsamples = 3\nvalue = [0, 3]"] ;
725 -> 726 ;
727 [label="gini = 0.0\nsamples = 1\nvalue = [1, 0]"] ;
725 -> 727 ;
728 [label="Crime <= 0.5\ngini = 0.428\nsamples = 71\nvalue = [22, 49]"] ;
714 -> 728 ;
729 [label="Duree <= 88.5\ngini = 0.461\nsamples = 61\nvalue = [22, 39]"] ;
728 -> 729 ;
730 [label="gini = 0.0\nsamples = 2\nvalue = [2, 0]"] ;
729 -> 730 ;
731 [label="annee <= 2003.0\ngini = 0.448\nsamples = 59\nvalue = [20, 39]"] ;
729 -> 731 ;
732 [label="Sport <= 0.5\ngini = 0.493\nsamples = 34\nvalue = [15, 19]"] ;
731 -> 732 ;
733 [label="gini = 0.475\nsamples = 31\nvalue = [12, 19]"] ;
732 -> 733 ;
734 [label="gini = 0.0\nsamples = 3\nvalue = [3, 0]"] ;
732 -> 734 ;
735 [label="budget <= 13350000.0\ngini = 0.32\nsamples = 25\nvalue = [5, 20]"] ;
731 -> 735 ;
736 [label="gini = 0.227\nsamples = 23\nvalue = [3, 20]"] ;
735 -> 736 ;
737 [label="gini = 0.0\nsamples = 2\nvalue = [2, 0]"] ;
735 -> 737 ;
738 [label="gini = 0.0\nsamples = 10\nvalue = [0, 10]"] ;
728 -> 738 ;
739 [label="Duree <= 97.5\ngini = 0.476\nsamples = 59\nvalue = [23, 36]"] ;
713 -> 739 ;
740 [label="Duree <= 96.5\ngini = 0.497\nsamples = 28\nvalue = [15, 13]"] ;
739 -> 740 ;
741 [label="annee <= 2013.5\ngini = 0.496\nsamples = 22\nvalue = [10, 12]"] ;
740 -> 741 ;
742 [label="Biography <= 0.5\ngini = 0.499\nsamples = 19\nvalue = [10, 9]"] ;
741 -> 742 ;
743 [label="budget <= 13000000.0\ngini = 0.498\nsamples = 17\nvalue = [8, 9]"] ;
742 -> 743 ;
744 [label="gini = 0.498\nsamples = 15\nvalue = [8, 7]"] ;
743 -> 744 ;
745 [label="gini = 0.0\nsamples = 2\nvalue = [0, 2]"] ;
743 -> 745 ;
746 [label="gini = 0.0\nsamples = 2\nvalue = [2, 0]"] ;
742 -> 746 ;
747 [label="gini = 0.0\nsamples = 3\nvalue = [0, 3]"] ;
741 -> 747 ;
748 [label="Crime <= 0.5\ngini = 0.278\nsamples = 6\nvalue = [5, 1]"] ;
740 -> 748 ;
749 [label="gini = 0.0\nsamples = 5\nvalue = [5, 0]"] ;
748 -> 749 ;
750 [label="gini = 0.0\nsamples = 1\nvalue = [0, 1]"] ;
748 -> 750 ;
751 [label="annee <= 2013.5\ngini = 0.383\nsamples = 31\nvalue = [8, 23]"] ;
739 -> 751 ;
752 [label="History <= 0.5\ngini = 0.269\nsamples = 25\nvalue = [4, 21]"] ;
751 -> 752 ;
753 [label="annee <= 2011.5\ngini = 0.219\nsamples = 24\nvalue = [3, 21]"] ;
752 -> 753 ;
754 [label="Duree <= 101.5\ngini = 0.32\nsamples = 15\nvalue = [3, 12]"] ;
753 -> 754 ;
755 [label="gini = 0.18\nsamples = 10\nvalue = [1, 9]"] ;
754 -> 755 ;
756 [label="gini = 0.48\nsamples = 5\nvalue = [2, 3]"] ;
754 -> 756 ;
757 [label="gini = 0.0\nsamples = 9\nvalue = [0, 9]"] ;
753 -> 757 ;
758 [label="gini = 0.0\nsamples = 1\nvalue = [1, 0]"] ;
752 -> 758 ;
759 [label="budget <= 12625000.0\ngini = 0.444\nsamples = 6\nvalue = [4, 2]"] ;
751 -> 759 ;
760 [label="Duree <= 101.5\ngini = 0.32\nsamples = 5\nvalue = [4, 1]"] ;
759 -> 760 ;
761 [label="budget <= 8050000.0\ngini = 0.5\nsamples = 2\nvalue = [1, 1]"] ;
760 -> 761 ;
762 [label="gini = 0.0\nsamples = 1\nvalue = [0, 1]"] ;
761 -> 762 ;
763 [label="gini = 0.0\nsamples = 1\nvalue = [1, 0]"] ;
761 -> 763 ;
764 [label="gini = 0.0\nsamples = 3\nvalue = [3, 0]"] ;
760 -> 764 ;
765 [label="gini = 0.0\nsamples = 1\nvalue = [0, 1]"] ;
759 -> 765 ;
766 [label="Duree <= 101.5\ngini = 0.5\nsamples = 14\nvalue = [7, 7]"] ;
712 -> 766 ;
767 [label="Fantasy <= 0.5\ngini = 0.42\nsamples = 10\nvalue = [3, 7]"] ;
766 -> 767 ;
768 [label="Family <= 0.5\ngini = 0.245\nsamples = 7\nvalue = [1, 6]"] ;
767 -> 768 ;
769 [label="gini = 0.0\nsamples = 5\nvalue = [0, 5]"] ;
768 -> 769 ;
770 [label="budget <= 6060000.0\ngini = 0.5\nsamples = 2\nvalue = [1, 1]"] ;
768 -> 770 ;
771 [label="gini = 0.0\nsamples = 1\nvalue = [1, 0]"] ;
770 -> 771 ;
772 [label="gini = 0.0\nsamples = 1\nvalue = [0, 1]"] ;
770 -> 772 ;
773 [label="Duree <= 97.0\ngini = 0.444\nsamples = 3\nvalue = [2, 1]"] ;
767 -> 773 ;
774 [label="gini = 0.0\nsamples = 2\nvalue = [2, 0]"] ;
773 -> 774 ;
775 [label="gini = 0.0\nsamples = 1\nvalue = [0, 1]"] ;
773 -> 775 ;
776 [label="gini = 0.0\nsamples = 4\nvalue = [4, 0]"] ;
766 -> 776 ;
777 [label="gini = 0.0\nsamples = 8\nvalue = [0, 8]"] ;
711 -> 777 ;
778 [label="annee <= 2005.5\ngini = 0.5\nsamples = 85\nvalue = [42, 43]"] ;
710 -> 778 ;
779 [label="Duree <= 95.5\ngini = 0.457\nsamples = 48\nvalue = [17, 31]"] ;
778 -> 779 ;
780 [label="annee <= 1987.5\ngini = 0.496\nsamples = 22\nvalue = [12, 10]"] ;
779 -> 780 ;
781 [label="gini = 0.0\nsamples = 4\nvalue = [0, 4]"] ;
780 -> 781 ;
782 [label="Duree <= 83.0\ngini = 0.444\nsamples = 18\nvalue = [12, 6]"] ;
780 -> 782 ;
783 [label="gini = 0.0\nsamples = 2\nvalue = [0, 2]"] ;
782 -> 783 ;
784 [label="budget <= 5500000.0\ngini = 0.375\nsamples = 16\nvalue = [12, 4]"] ;
782 -> 784 ;
785 [label="annee <= 2001.5\ngini = 0.5\nsamples = 6\nvalue = [3, 3]"] ;
784 -> 785 ;
786 [label="Action <= 0.5\ngini = 0.375\nsamples = 4\nvalue = [3, 1]"] ;
785 -> 786 ;
787 [label="gini = 0.0\nsamples = 3\nvalue = [3, 0]"] ;
786 -> 787 ;
788 [label="gini = 0.0\nsamples = 1\nvalue = [0, 1]"] ;
786 -> 788 ;
789 [label="gini = 0.0\nsamples = 2\nvalue = [0, 2]"] ;
785 -> 789 ;
790 [label="Mystery <= 0.5\ngini = 0.18\nsamples = 10\nvalue = [9, 1]"] ;
784 -> 790 ;
791 [label="gini = 0.0\nsamples = 8\nvalue = [8, 0]"] ;
790 -> 791 ;
792 [label="Duree <= 91.5\ngini = 0.5\nsamples = 2\nvalue = [1, 1]"] ;
790 -> 792 ;
793 [label="gini = 0.0\nsamples = 1\nvalue = [0, 1]"] ;
792 -> 793 ;
794 [label="gini = 0.0\nsamples = 1\nvalue = [1, 0]"] ;
792 -> 794 ;
795 [label="Horror <= 0.5\ngini = 0.311\nsamples = 26\nvalue = [5, 21]"] ;
779 -> 795 ;
796 [label="budget <= 2945000.0\ngini = 0.219\nsamples = 24\nvalue = [3, 21]"] ;
795 -> 796 ;
797 [label="gini = 0.0\nsamples = 1\nvalue = [1, 0]"] ;
796 -> 797 ;
798 [label="Biography <= 0.5\ngini = 0.159\nsamples = 23\nvalue = [2, 21]"] ;
796 -> 798 ;
799 [label="Action <= 0.5\ngini = 0.087\nsamples = 22\nvalue = [1, 21]"] ;
798 -> 799 ;
800 [label="gini = 0.0\nsamples = 19\nvalue = [0, 19]"] ;
799 -> 800 ;
801 [label="budget <= 9250000.0\ngini = 0.444\nsamples = 3\nvalue = [1, 2]"] ;
799 -> 801 ;
802 [label="gini = 0.0\nsamples = 2\nvalue = [0, 2]"] ;
801 -> 802 ;
803 [label="gini = 0.0\nsamples = 1\nvalue = [1, 0]"] ;
801 -> 803 ;
804 [label="gini = 0.0\nsamples = 1\nvalue = [1, 0]"] ;
798 -> 804 ;
805 [label="gini = 0.0\nsamples = 2\nvalue = [2, 0]"] ;
795 -> 805 ;
806 [label="Horror <= 0.5\ngini = 0.438\nsamples = 37\nvalue = [25, 12]"] ;
778 -> 806 ;
807 [label="Duree <= 94.5\ngini = 0.488\nsamples = 26\nvalue = [15, 11]"] ;
806 -> 807 ;
808 [label="Crime <= 0.5\ngini = 0.375\nsamples = 12\nvalue = [9, 3]"] ;
807 -> 808 ;
809 [label="Mystery <= 0.5\ngini = 0.48\nsamples = 5\nvalue = [2, 3]"] ;
808 -> 809 ;
810 [label="gini = 0.0\nsamples = 3\nvalue = [0, 3]"] ;
809 -> 810 ;
811 [label="gini = 0.0\nsamples = 2\nvalue = [2, 0]"] ;
809 -> 811 ;
812 [label="gini = 0.0\nsamples = 7\nvalue = [7, 0]"] ;
808 -> 812 ;
813 [label="Duree <= 102.5\ngini = 0.49\nsamples = 14\nvalue = [6, 8]"] ;
807 -> 813 ;
814 [label="Fantasy <= 0.5\ngini = 0.444\nsamples = 12\nvalue = [4, 8]"] ;
813 -> 814 ;
815 [label="annee <= 2011.5\ngini = 0.397\nsamples = 11\nvalue = [3, 8]"] ;
814 -> 815 ;
816 [label="Mystery <= 0.5\ngini = 0.219\nsamples = 8\nvalue = [1, 7]"] ;
815 -> 816 ;
817 [label="gini = 0.0\nsamples = 6\nvalue = [0, 6]"] ;
816 -> 817 ;
818 [label="annee <= 2009.5\ngini = 0.5\nsamples = 2\nvalue = [1, 1]"] ;
816 -> 818 ;
819 [label="gini = 0.0\nsamples = 1\nvalue = [1, 0]"] ;
818 -> 819 ;
820 [label="gini = 0.0\nsamples = 1\nvalue = [0, 1]"] ;
818 -> 820 ;
821 [label="Duree <= 98.0\ngini = 0.444\nsamples = 3\nvalue = [2, 1]"] ;
815 -> 821 ;
822 [label="gini = 0.0\nsamples = 2\nvalue = [2, 0]"] ;
821 -> 822 ;
823 [label="gini = 0.0\nsamples = 1\nvalue = [0, 1]"] ;
821 -> 823 ;
824 [label="gini = 0.0\nsamples = 1\nvalue = [1, 0]"] ;
814 -> 824 ;
825 [label="gini = 0.0\nsamples = 2\nvalue = [2, 0]"] ;
813 -> 825 ;
826 [label="Duree <= 101.5\ngini = 0.165\nsamples = 11\nvalue = [10, 1]"] ;
806 -> 826 ;
827 [label="gini = 0.0\nsamples = 8\nvalue = [8, 0]"] ;
826 -> 827 ;
828 [label="annee <= 2010.0\ngini = 0.444\nsamples = 3\nvalue = [2, 1]"] ;
826 -> 828 ;
829 [label="gini = 0.0\nsamples = 2\nvalue = [2, 0]"] ;
828 -> 829 ;
830 [label="gini = 0.0\nsamples = 1\nvalue = [0, 1]"] ;
828 -> 830 ;
831 [label="budget <= 11158052.5\ngini = 0.182\nsamples = 633\nvalue = [64, 569]"] ;
657 -> 831 ;
832 [label="Animation <= 0.5\ngini = 0.104\nsamples = 456\nvalue = [25, 431]"] ;
831 -> 832 ;
833 [label="budget <= 17805.0\ngini = 0.1\nsamples = 455\nvalue = [24, 431]"] ;
832 -> 833 ;
834 [label="gini = 0.0\nsamples = 1\nvalue = [1, 0]"] ;
833 -> 834 ;
835 [label="Sci-Fi <= 0.5\ngini = 0.096\nsamples = 454\nvalue = [23, 431]"] ;
833 -> 835 ;
836 [label="budget <= 4570000.0\ngini = 0.084\nsamples = 435\nvalue = [19, 416]"] ;
835 -> 836 ;
837 [label="annee <= 2011.5\ngini = 0.026\nsamples = 224\nvalue = [3, 221]"] ;
836 -> 837 ;
838 [label="budget <= 517750.0\ngini = 0.009\nsamples = 211\nvalue = [1, 210]"] ;
837 -> 838 ;
839 [label="annee <= 2007.0\ngini = 0.117\nsamples = 16\nvalue = [1, 15]"] ;
838 -> 839 ;
840 [label="gini = 0.0\nsamples = 14\nvalue = [0, 14]"] ;
839 -> 840 ;
841 [label="Duree <= 122.5\ngini = 0.5\nsamples = 2\nvalue = [1, 1]"] ;
839 -> 841 ;
842 [label="gini = 0.0\nsamples = 1\nvalue = [1, 0]"] ;
841 -> 842 ;
843 [label="gini = 0.0\nsamples = 1\nvalue = [0, 1]"] ;
841 -> 843 ;
844 [label="gini = 0.0\nsamples = 195\nvalue = [0, 195]"] ;
838 -> 844 ;
845 [label="Duree <= 114.0\ngini = 0.26\nsamples = 13\nvalue = [2, 11]"] ;
837 -> 845 ;
846 [label="budget <= 3180000.0\ngini = 0.5\nsamples = 4\nvalue = [2, 2]"] ;
845 -> 846 ;
847 [label="gini = 0.0\nsamples = 2\nvalue = [2, 0]"] ;
846 -> 847 ;
848 [label="gini = 0.0\nsamples = 2\nvalue = [0, 2]"] ;
846 -> 848 ;
849 [label="gini = 0.0\nsamples = 9\nvalue = [0, 9]"] ;
845 -> 849 ;
850 [label="budget <= 4614391.5\ngini = 0.14\nsamples = 211\nvalue = [16, 195]"] ;
836 -> 850 ;
851 [label="gini = 0.0\nsamples = 1\nvalue = [1, 0]"] ;
850 -> 851 ;
852 [label="Romance <= 0.5\ngini = 0.133\nsamples = 210\nvalue = [15, 195]"] ;
850 -> 852 ;
853 [label="Sport <= 0.5\ngini = 0.089\nsamples = 150\nvalue = [7, 143]"] ;
852 -> 853 ;
854 [label="Duree <= 105.5\ngini = 0.068\nsamples = 142\nvalue = [5, 137]"] ;
853 -> 854 ;
855 [label="budget <= 8500000.0\ngini = 0.32\nsamples = 5\nvalue = [1, 4]"] ;
854 -> 855 ;
856 [label="gini = 0.0\nsamples = 3\nvalue = [0, 3]"] ;
855 -> 856 ;
857 [label="gini = 0.5\nsamples = 2\nvalue = [1, 1]"] ;
855 -> 857 ;
858 [label="Action <= 0.5\ngini = 0.057\nsamples = 137\nvalue = [4, 133]"] ;
854 -> 858 ;
859 [label="gini = 0.033\nsamples = 120\nvalue = [2, 118]"] ;
858 -> 859 ;
860 [label="gini = 0.208\nsamples = 17\nvalue = [2, 15]"] ;
858 -> 860 ;
861 [label="annee <= 1989.0\ngini = 0.375\nsamples = 8\nvalue = [2, 6]"] ;
853 -> 861 ;
862 [label="gini = 0.0\nsamples = 5\nvalue = [0, 5]"] ;
861 -> 862 ;
863 [label="annee <= 2007.5\ngini = 0.444\nsamples = 3\nvalue = [2, 1]"] ;
861 -> 863 ;
864 [label="gini = 0.0\nsamples = 2\nvalue = [2, 0]"] ;
863 -> 864 ;
865 [label="gini = 0.0\nsamples = 1\nvalue = [0, 1]"] ;
863 -> 865 ;
866 [label="Duree <= 117.5\ngini = 0.231\nsamples = 60\nvalue = [8, 52]"] ;
852 -> 866 ;
867 [label="Duree <= 115.5\ngini = 0.363\nsamples = 21\nvalue = [5, 16]"] ;
866 -> 867 ;
868 [label="budget <= 7500000.0\ngini = 0.266\nsamples = 19\nvalue = [3, 16]"] ;
867 -> 868 ;
869 [label="gini = 0.0\nsamples = 12\nvalue = [0, 12]"] ;
868 -> 869 ;
870 [label="gini = 0.49\nsamples = 7\nvalue = [3, 4]"] ;
868 -> 870 ;
871 [label="gini = 0.0\nsamples = 2\nvalue = [2, 0]"] ;
867 -> 871 ;
872 [label="War <= 0.5\ngini = 0.142\nsamples = 39\nvalue = [3, 36]"] ;
866 -> 872 ;
873 [label="Comedy <= 0.5\ngini = 0.105\nsamples = 36\nvalue = [2, 34]"] ;
872 -> 873 ;
874 [label="gini = 0.062\nsamples = 31\nvalue = [1, 30]"] ;
873 -> 874 ;
875 [label="gini = 0.32\nsamples = 5\nvalue = [1, 4]"] ;
873 -> 875 ;
876 [label="Duree <= 132.0\ngini = 0.444\nsamples = 3\nvalue = [1, 2]"] ;
872 -> 876 ;
877 [label="gini = 0.0\nsamples = 1\nvalue = [1, 0]"] ;
876 -> 877 ;
878 [label="gini = 0.0\nsamples = 2\nvalue = [0, 2]"] ;
876 -> 878 ;
879 [label="Duree <= 112.5\ngini = 0.332\nsamples = 19\nvalue = [4, 15]"] ;
835 -> 879 ;
880 [label="Action <= 0.5\ngini = 0.5\nsamples = 6\nvalue = [3, 3]"] ;
879 -> 880 ;
881 [label="annee <= 1970.0\ngini = 0.375\nsamples = 4\nvalue = [3, 1]"] ;
880 -> 881 ;
882 [label="gini = 0.0\nsamples = 1\nvalue = [0, 1]"] ;
881 -> 882 ;
883 [label="gini = 0.0\nsamples = 3\nvalue = [3, 0]"] ;
881 -> 883 ;
884 [label="gini = 0.0\nsamples = 2\nvalue = [0, 2]"] ;
880 -> 884 ;
885 [label="budget <= 8200000.0\ngini = 0.142\nsamples = 13\nvalue = [1, 12]"] ;
879 -> 885 ;
886 [label="gini = 0.0\nsamples = 11\nvalue = [0, 11]"] ;
885 -> 886 ;
887 [label="budget <= 10000000.0\ngini = 0.5\nsamples = 2\nvalue = [1, 1]"] ;
885 -> 887 ;
888 [label="gini = 0.0\nsamples = 1\nvalue = [1, 0]"] ;
887 -> 888 ;
889 [label="gini = 0.0\nsamples = 1\nvalue = [0, 1]"] ;
887 -> 889 ;
890 [label="gini = 0.0\nsamples = 1\nvalue = [1, 0]"] ;
832 -> 890 ;
891 [label="annee <= 2009.5\ngini = 0.344\nsamples = 177\nvalue = [39, 138]"] ;
831 -> 891 ;
892 [label="Comedy <= 0.5\ngini = 0.263\nsamples = 135\nvalue = [21, 114]"] ;
891 -> 892 ;
893 [label="budget <= 11250000.0\ngini = 0.194\nsamples = 110\nvalue = [12, 98]"] ;
892 -> 893 ;
894 [label="gini = 0.0\nsamples = 1\nvalue = [1, 0]"] ;
893 -> 894 ;
895 [label="Horror <= 0.5\ngini = 0.181\nsamples = 109\nvalue = [11, 98]"] ;
893 -> 895 ;
896 [label="Music <= 0.5\ngini = 0.168\nsamples = 108\nvalue = [10, 98]"] ;
895 -> 896 ;
897 [label="Duree <= 111.5\ngini = 0.129\nsamples = 101\nvalue = [7, 94]"] ;
896 -> 897 ;
898 [label="annee <= 2001.0\ngini = 0.351\nsamples = 22\nvalue = [5, 17]"] ;
897 -> 898 ;
899 [label="annee <= 1996.0\ngini = 0.494\nsamples = 9\nvalue = [4, 5]"] ;
898 -> 899 ;
900 [label="budget <= 12500000.0\ngini = 0.408\nsamples = 7\nvalue = [2, 5]"] ;
899 -> 900 ;
901 [label="gini = 0.444\nsamples = 3\nvalue = [2, 1]"] ;
900 -> 901 ;
902 [label="gini = 0.0\nsamples = 4\nvalue = [0, 4]"] ;
900 -> 902 ;
903 [label="gini = 0.0\nsamples = 2\nvalue = [2, 0]"] ;
899 -> 903 ;
904 [label="Thriller <= 0.5\ngini = 0.142\nsamples = 13\nvalue = [1, 12]"] ;
898 -> 904 ;
905 [label="gini = 0.0\nsamples = 8\nvalue = [0, 8]"] ;
904 -> 905 ;
906 [label="Action <= 0.5\ngini = 0.32\nsamples = 5\nvalue = [1, 4]"] ;
904 -> 906 ;
907 [label="gini = 0.444\nsamples = 3\nvalue = [1, 2]"] ;
906 -> 907 ;
908 [label="gini = 0.0\nsamples = 2\nvalue = [0, 2]"] ;
906 -> 908 ;
909 [label="Romance <= 0.5\ngini = 0.049\nsamples = 79\nvalue = [2, 77]"] ;
897 -> 909 ;
910 [label="gini = 0.0\nsamples = 54\nvalue = [0, 54]"] ;
909 -> 910 ;
911 [label="Duree <= 130.5\ngini = 0.147\nsamples = 25\nvalue = [2, 23]"] ;
909 -> 911 ;
912 [label="gini = 0.0\nsamples = 18\nvalue = [0, 18]"] ;
911 -> 912 ;
913 [label="Duree <= 133.0\ngini = 0.408\nsamples = 7\nvalue = [2, 5]"] ;
911 -> 913 ;
914 [label="gini = 0.0\nsamples = 1\nvalue = [1, 0]"] ;
913 -> 914 ;
915 [label="gini = 0.278\nsamples = 6\nvalue = [1, 5]"] ;
913 -> 915 ;
916 [label="annee <= 1993.5\ngini = 0.49\nsamples = 7\nvalue = [3, 4]"] ;
896 -> 916 ;
917 [label="gini = 0.0\nsamples = 2\nvalue = [0, 2]"] ;
916 -> 917 ;
918 [label="annee <= 2003.5\ngini = 0.48\nsamples = 5\nvalue = [3, 2]"] ;
916 -> 918 ;
919 [label="gini = 0.0\nsamples = 2\nvalue = [2, 0]"] ;
918 -> 919 ;
920 [label="budget <= 13000000.0\ngini = 0.444\nsamples = 3\nvalue = [1, 2]"] ;
918 -> 920 ;
921 [label="gini = 0.0\nsamples = 1\nvalue = [0, 1]"] ;
920 -> 921 ;
922 [label="Duree <= 112.5\ngini = 0.5\nsamples = 2\nvalue = [1, 1]"] ;
920 -> 922 ;
923 [label="gini = 0.0\nsamples = 1\nvalue = [1, 0]"] ;
922 -> 923 ;
924 [label="gini = 0.0\nsamples = 1\nvalue = [0, 1]"] ;
922 -> 924 ;
925 [label="gini = 0.0\nsamples = 1\nvalue = [1, 0]"] ;
895 -> 925 ;
926 [label="Duree <= 124.5\ngini = 0.461\nsamples = 25\nvalue = [9, 16]"] ;
892 -> 926 ;
927 [label="Duree <= 109.0\ngini = 0.499\nsamples = 19\nvalue = [9, 10]"] ;
926 -> 927 ;
928 [label="gini = 0.0\nsamples = 3\nvalue = [0, 3]"] ;
927 -> 928 ;
929 [label="Duree <= 121.5\ngini = 0.492\nsamples = 16\nvalue = [9, 7]"] ;
927 -> 929 ;
930 [label="Duree <= 119.0\ngini = 0.5\nsamples = 14\nvalue = [7, 7]"] ;
929 -> 930 ;
931 [label="annee <= 2007.0\ngini = 0.444\nsamples = 9\nvalue = [6, 3]"] ;
930 -> 931 ;
932 [label="Mystery <= 0.5\ngini = 0.375\nsamples = 8\nvalue = [6, 2]"] ;
931 -> 932 ;
933 [label="Fantasy <= 0.5\ngini = 0.245\nsamples = 7\nvalue = [6, 1]"] ;
932 -> 933 ;
934 [label="gini = 0.0\nsamples = 5\nvalue = [5, 0]"] ;
933 -> 934 ;
935 [label="gini = 0.5\nsamples = 2\nvalue = [1, 1]"] ;
933 -> 935 ;
936 [label="gini = 0.0\nsamples = 1\nvalue = [0, 1]"] ;
932 -> 936 ;
937 [label="gini = 0.0\nsamples = 1\nvalue = [0, 1]"] ;
931 -> 937 ;
938 [label="budget <= 14500000.0\ngini = 0.32\nsamples = 5\nvalue = [1, 4]"] ;
930 -> 938 ;
939 [label="gini = 0.0\nsamples = 3\nvalue = [0, 3]"] ;
938 -> 939 ;
940 [label="War <= 0.5\ngini = 0.5\nsamples = 2\nvalue = [1, 1]"] ;
938 -> 940 ;
941 [label="gini = 0.0\nsamples = 1\nvalue = [0, 1]"] ;
940 -> 941 ;
942 [label="gini = 0.0\nsamples = 1\nvalue = [1, 0]"] ;
940 -> 942 ;
943 [label="gini = 0.0\nsamples = 2\nvalue = [2, 0]"] ;
929 -> 943 ;
944 [label="gini = 0.0\nsamples = 6\nvalue = [0, 6]"] ;
926 -> 944 ;
945 [label="Duree <= 120.0\ngini = 0.49\nsamples = 42\nvalue = [18, 24]"] ;
891 -> 945 ;
946 [label="Duree <= 106.5\ngini = 0.499\nsamples = 29\nvalue = [15, 14]"] ;
945 -> 946 ;
947 [label="gini = 0.0\nsamples = 3\nvalue = [0, 3]"] ;
946 -> 947 ;
948 [label="Crime <= 0.5\ngini = 0.488\nsamples = 26\nvalue = [15, 11]"] ;
946 -> 948 ;
949 [label="Music <= 0.5\ngini = 0.499\nsamples = 21\nvalue = [10, 11]"] ;
948 -> 949 ;
950 [label="annee <= 2010.5\ngini = 0.488\nsamples = 19\nvalue = [8, 11]"] ;
949 -> 950 ;
951 [label="gini = 0.0\nsamples = 4\nvalue = [0, 4]"] ;
950 -> 951 ;
952 [label="Duree <= 113.5\ngini = 0.498\nsamples = 15\nvalue = [8, 7]"] ;
950 -> 952 ;
953 [label="Duree <= 108.5\ngini = 0.42\nsamples = 10\nvalue = [7, 3]"] ;
952 -> 953 ;
954 [label="budget <= 14000000.0\ngini = 0.48\nsamples = 5\nvalue = [2, 3]"] ;
953 -> 954 ;
955 [label="gini = 0.444\nsamples = 3\nvalue = [2, 1]"] ;
954 -> 955 ;
956 [label="gini = 0.0\nsamples = 2\nvalue = [0, 2]"] ;
954 -> 956 ;
957 [label="gini = 0.0\nsamples = 5\nvalue = [5, 0]"] ;
953 -> 957 ;
958 [label="Duree <= 116.5\ngini = 0.32\nsamples = 5\nvalue = [1, 4]"] ;
952 -> 958 ;
959 [label="gini = 0.0\nsamples = 4\nvalue = [0, 4]"] ;
958 -> 959 ;
960 [label="gini = 0.0\nsamples = 1\nvalue = [1, 0]"] ;
958 -> 960 ;
961 [label="gini = 0.0\nsamples = 2\nvalue = [2, 0]"] ;
949 -> 961 ;
962 [label="gini = 0.0\nsamples = 5\nvalue = [5, 0]"] ;
948 -> 962 ;
963 [label="budget <= 14345000.0\ngini = 0.355\nsamples = 13\nvalue = [3, 10]"] ;
945 -> 963 ;
964 [label="Romance <= 0.5\ngini = 0.5\nsamples = 6\nvalue = [3, 3]"] ;
963 -> 964 ;
965 [label="History <= 0.5\ngini = 0.375\nsamples = 4\nvalue = [3, 1]"] ;
964 -> 965 ;
966 [label="gini = 0.0\nsamples = 3\nvalue = [3, 0]"] ;
965 -> 966 ;
967 [label="gini = 0.0\nsamples = 1\nvalue = [0, 1]"] ;
965 -> 967 ;
968 [label="gini = 0.0\nsamples = 2\nvalue = [0, 2]"] ;
964 -> 968 ;
969 [label="gini = 0.0\nsamples = 7\nvalue = [0, 7]"] ;
963 -> 969 ;
970 [label="Duree <= 115.5\ngini = 0.481\nsamples = 1156\nvalue = [465, 691]"] ;
656 -> 970 ;
971 [label="Biography <= 0.5\ngini = 0.486\nsamples = 540\nvalue = [315, 225]"] ;
970 -> 971 ;
972 [label="Thriller <= 0.5\ngini = 0.477\nsamples = 512\nvalue = [311, 201]"] ;
971 -> 972 ;
973 [label="Duree <= 107.5\ngini = 0.499\nsamples = 284\nvalue = [149, 135]"] ;
972 -> 973 ;
974 [label="Animation <= 0.5\ngini = 0.481\nsamples = 189\nvalue = [113, 76]"] ;
973 -> 974 ;
975 [label="budget <= 32500000.0\ngini = 0.464\nsamples = 172\nvalue = [109, 63]"] ;
974 -> 975 ;
976 [label="annee <= 1996.5\ngini = 0.495\nsamples = 116\nvalue = [64, 52]"] ;
975 -> 976 ;
977 [label="Music <= 0.5\ngini = 0.444\nsamples = 27\nvalue = [9, 18]"] ;
976 -> 977 ;
978 [label="Sci-Fi <= 0.5\ngini = 0.403\nsamples = 25\nvalue = [7, 18]"] ;
977 -> 978 ;
979 [label="annee <= 1994.5\ngini = 0.375\nsamples = 24\nvalue = [6, 18]"] ;
978 -> 979 ;
980 [label="budget <= 26000000.0\ngini = 0.432\nsamples = 19\nvalue = [6, 13]"] ;
979 -> 980 ;
981 [label="gini = 0.48\nsamples = 15\nvalue = [6, 9]"] ;
980 -> 981 ;
982 [label="gini = 0.0\nsamples = 4\nvalue = [0, 4]"] ;
980 -> 982 ;
983 [label="gini = 0.0\nsamples = 5\nvalue = [0, 5]"] ;
979 -> 983 ;
984 [label="gini = 0.0\nsamples = 1\nvalue = [1, 0]"] ;
978 -> 984 ;
985 [label="gini = 0.0\nsamples = 2\nvalue = [2, 0]"] ;
977 -> 985 ;
986 [label="budget <= 17600000.0\ngini = 0.472\nsamples = 89\nvalue = [55, 34]"] ;
976 -> 986 ;
987 [label="Duree <= 99.0\ngini = 0.463\nsamples = 11\nvalue = [4, 7]"] ;
986 -> 987 ;
988 [label="Duree <= 88.5\ngini = 0.346\nsamples = 9\nvalue = [2, 7]"] ;
987 -> 988 ;
989 [label="gini = 0.0\nsamples = 1\nvalue = [1, 0]"] ;
988 -> 989 ;
990 [label="annee <= 2002.5\ngini = 0.219\nsamples = 8\nvalue = [1, 7]"] ;
988 -> 990 ;
991 [label="gini = 0.5\nsamples = 2\nvalue = [1, 1]"] ;
990 -> 991 ;
992 [label="gini = 0.0\nsamples = 6\nvalue = [0, 6]"] ;
990 -> 992 ;
993 [label="gini = 0.0\nsamples = 2\nvalue = [2, 0]"] ;
987 -> 993 ;
994 [label="Duree <= 81.5\ngini = 0.453\nsamples = 78\nvalue = [51, 27]"] ;
986 -> 994 ;
995 [label="gini = 0.0\nsamples = 2\nvalue = [0, 2]"] ;
994 -> 995 ;
996 [label="Duree <= 94.5\ngini = 0.441\nsamples = 76\nvalue = [51, 25]"] ;
994 -> 996 ;
997 [label="annee <= 2010.0\ngini = 0.153\nsamples = 12\nvalue = [11, 1]"] ;
996 -> 997 ;
998 [label="gini = 0.0\nsamples = 10\nvalue = [10, 0]"] ;
997 -> 998 ;
999 [label="gini = 0.5\nsamples = 2\nvalue = [1, 1]"] ;
997 -> 999 ;
1000 [label="annee <= 2009.5\ngini = 0.469\nsamples = 64\nvalue = [40, 24]"] ;
996 -> 1000 ;
1001 [label="gini = 0.499\nsamples = 44\nvalue = [23, 21]"] ;
1000 -> 1001 ;
1002 [label="gini = 0.255\nsamples = 20\nvalue = [17, 3]"] ;
1000 -> 1002 ;
1003 [label="budget <= 80500000.0\ngini = 0.316\nsamples = 56\nvalue = [45, 11]"] ;
975 -> 1003 ;
1004 [label="annee <= 2005.5\ngini = 0.269\nsamples = 50\nvalue = [42, 8]"] ;
1003 -> 1004 ;
1005 [label="Duree <= 106.5\ngini = 0.121\nsamples = 31\nvalue = [29, 2]"] ;
1004 -> 1005 ;
1006 [label="budget <= 59000000.0\ngini = 0.069\nsamples = 28\nvalue = [27, 1]"] ;
1005 -> 1006 ;
1007 [label="gini = 0.0\nsamples = 22\nvalue = [22, 0]"] ;
1006 -> 1007 ;
1008 [label="budget <= 65000000.0\ngini = 0.278\nsamples = 6\nvalue = [5, 1]"] ;
1006 -> 1008 ;
1009 [label="gini = 0.5\nsamples = 2\nvalue = [1, 1]"] ;
1008 -> 1009 ;
1010 [label="gini = 0.0\nsamples = 4\nvalue = [4, 0]"] ;
1008 -> 1010 ;
1011 [label="budget <= 40000000.0\ngini = 0.444\nsamples = 3\nvalue = [2, 1]"] ;
1005 -> 1011 ;
1012 [label="gini = 0.0\nsamples = 1\nvalue = [0, 1]"] ;
1011 -> 1012 ;
1013 [label="gini = 0.0\nsamples = 2\nvalue = [2, 0]"] ;
1011 -> 1013 ;
1014 [label="Sci-Fi <= 0.5\ngini = 0.432\nsamples = 19\nvalue = [13, 6]"] ;
1004 -> 1014 ;
1015 [label="Crime <= 0.5\ngini = 0.36\nsamples = 17\nvalue = [13, 4]"] ;
1014 -> 1015 ;
1016 [label="Adventure <= 0.5\ngini = 0.245\nsamples = 14\nvalue = [12, 2]"] ;
1015 -> 1016 ;
1017 [label="gini = 0.142\nsamples = 13\nvalue = [12, 1]"] ;
1016 -> 1017 ;
1018 [label="gini = 0.0\nsamples = 1\nvalue = [0, 1]"] ;
1016 -> 1018 ;
1019 [label="Action <= 0.5\ngini = 0.444\nsamples = 3\nvalue = [1, 2]"] ;
1015 -> 1019 ;
1020 [label="gini = 0.0\nsamples = 2\nvalue = [0, 2]"] ;
1019 -> 1020 ;
1021 [label="gini = 0.0\nsamples = 1\nvalue = [1, 0]"] ;
1019 -> 1021 ;
1022 [label="gini = 0.0\nsamples = 2\nvalue = [0, 2]"] ;
1014 -> 1022 ;
1023 [label="annee <= 2010.5\ngini = 0.5\nsamples = 6\nvalue = [3, 3]"] ;
1003 -> 1023 ;
1024 [label="gini = 0.0\nsamples = 3\nvalue = [0, 3]"] ;
1023 -> 1024 ;
1025 [label="gini = 0.0\nsamples = 3\nvalue = [3, 0]"] ;
1023 -> 1025 ;
1026 [label="budget <= 42500000.0\ngini = 0.36\nsamples = 17\nvalue = [4, 13]"] ;
974 -> 1026 ;
1027 [label="Comedy <= 0.5\ngini = 0.49\nsamples = 7\nvalue = [4, 3]"] ;
1026 -> 1027 ;
1028 [label="Duree <= 97.0\ngini = 0.375\nsamples = 4\nvalue = [1, 3]"] ;
1027 -> 1028 ;
1029 [label="gini = 0.0\nsamples = 3\nvalue = [0, 3]"] ;
1028 -> 1029 ;
1030 [label="gini = 0.0\nsamples = 1\nvalue = [1, 0]"] ;
1028 -> 1030 ;
1031 [label="gini = 0.0\nsamples = 3\nvalue = [3, 0]"] ;
1027 -> 1031 ;
1032 [label="gini = 0.0\nsamples = 10\nvalue = [0, 10]"] ;
1026 -> 1032 ;
1033 [label="annee <= 2005.5\ngini = 0.471\nsamples = 95\nvalue = [36, 59]"] ;
973 -> 1033 ;
1034 [label="annee <= 1980.5\ngini = 0.386\nsamples = 46\nvalue = [12, 34]"] ;
1033 -> 1034 ;
1035 [label="gini = 0.0\nsamples = 1\nvalue = [1, 0]"] ;
1034 -> 1035 ;
1036 [label="annee <= 1992.5\ngini = 0.369\nsamples = 45\nvalue = [11, 34]"] ;
1034 -> 1036 ;
1037 [label="gini = 0.0\nsamples = 10\nvalue = [0, 10]"] ;
1036 -> 1037 ;
1038 [label="annee <= 2001.5\ngini = 0.431\nsamples = 35\nvalue = [11, 24]"] ;
1036 -> 1038 ;
1039 [label="budget <= 61000000.0\ngini = 0.473\nsamples = 26\nvalue = [10, 16]"] ;
1038 -> 1039 ;
1040 [label="budget <= 57500000.0\ngini = 0.491\nsamples = 23\nvalue = [10, 13]"] ;
1039 -> 1040 ;
1041 [label="Duree <= 114.5\ngini = 0.472\nsamples = 21\nvalue = [8, 13]"] ;
1040 -> 1041 ;
1042 [label="gini = 0.494\nsamples = 18\nvalue = [8, 10]"] ;
1041 -> 1042 ;
1043 [label="gini = 0.0\nsamples = 3\nvalue = [0, 3]"] ;
1041 -> 1043 ;
1044 [label="gini = 0.0\nsamples = 2\nvalue = [2, 0]"] ;
1040 -> 1044 ;
1045 [label="gini = 0.0\nsamples = 3\nvalue = [0, 3]"] ;
1039 -> 1045 ;
1046 [label="Duree <= 108.5\ngini = 0.198\nsamples = 9\nvalue = [1, 8]"] ;
1038 -> 1046 ;
1047 [label="Comedy <= 0.5\ngini = 0.444\nsamples = 3\nvalue = [1, 2]"] ;
1046 -> 1047 ;
1048 [label="gini = 0.0\nsamples = 2\nvalue = [0, 2]"] ;
1047 -> 1048 ;
1049 [label="gini = 0.0\nsamples = 1\nvalue = [1, 0]"] ;
1047 -> 1049 ;
1050 [label="gini = 0.0\nsamples = 6\nvalue = [0, 6]"] ;
1046 -> 1050 ;
1051 [label="budget <= 100000000.0\ngini = 0.5\nsamples = 49\nvalue = [24, 25]"] ;
1033 -> 1051 ;
1052 [label="Music <= 0.5\ngini = 0.496\nsamples = 46\nvalue = [21, 25]"] ;
1051 -> 1052 ;
1053 [label="Family <= 0.5\ngini = 0.491\nsamples = 44\nvalue = [19, 25]"] ;
1052 -> 1053 ;
1054 [label="budget <= 51500000.0\ngini = 0.497\nsamples = 41\nvalue = [19, 22]"] ;
1053 -> 1054 ;
1055 [label="Fantasy <= 0.5\ngini = 0.486\nsamples = 36\nvalue = [15, 21]"] ;
1054 -> 1055 ;
1056 [label="Duree <= 111.5\ngini = 0.493\nsamples = 34\nvalue = [15, 19]"] ;
1055 -> 1056 ;
1057 [label="gini = 0.444\nsamples = 18\nvalue = [6, 12]"] ;
1056 -> 1057 ;
1058 [label="gini = 0.492\nsamples = 16\nvalue = [9, 7]"] ;
1056 -> 1058 ;
1059 [label="gini = 0.0\nsamples = 2\nvalue = [0, 2]"] ;
1055 -> 1059 ;
1060 [label="budget <= 82500000.0\ngini = 0.32\nsamples = 5\nvalue = [4, 1]"] ;
1054 -> 1060 ;
1061 [label="gini = 0.0\nsamples = 4\nvalue = [4, 0]"] ;
1060 -> 1061 ;
1062 [label="gini = 0.0\nsamples = 1\nvalue = [0, 1]"] ;
1060 -> 1062 ;
1063 [label="gini = 0.0\nsamples = 3\nvalue = [0, 3]"] ;
1053 -> 1063 ;
1064 [label="gini = 0.0\nsamples = 2\nvalue = [2, 0]"] ;
1052 -> 1064 ;
1065 [label="gini = 0.0\nsamples = 3\nvalue = [3, 0]"] ;
1051 -> 1065 ;
1066 [label="Duree <= 104.5\ngini = 0.411\nsamples = 228\nvalue = [162, 66]"] ;
972 -> 1066 ;
1067 [label="War <= 0.5\ngini = 0.308\nsamples = 105\nvalue = [85, 20]"] ;
1066 -> 1067 ;
1068 [label="Crime <= 0.5\ngini = 0.291\nsamples = 102\nvalue = [84, 18]"] ;
1067 -> 1068 ;
1069 [label="Duree <= 80.0\ngini = 0.153\nsamples = 48\nvalue = [44, 4]"] ;
1068 -> 1069 ;
1070 [label="gini = 0.0\nsamples = 1\nvalue = [0, 1]"] ;
1069 -> 1070 ;
1071 [label="budget <= 49000000.0\ngini = 0.12\nsamples = 47\nvalue = [44, 3]"] ;
1069 -> 1071 ;
1072 [label="Sci-Fi <= 0.5\ngini = 0.053\nsamples = 37\nvalue = [36, 1]"] ;
1071 -> 1072 ;
1073 [label="gini = 0.0\nsamples = 26\nvalue = [26, 0]"] ;
1072 -> 1073 ;
1074 [label="Duree <= 94.5\ngini = 0.165\nsamples = 11\nvalue = [10, 1]"] ;
1072 -> 1074 ;
1075 [label="budget <= 29500000.0\ngini = 0.375\nsamples = 4\nvalue = [3, 1]"] ;
1074 -> 1075 ;
1076 [label="gini = 0.0\nsamples = 1\nvalue = [0, 1]"] ;
1075 -> 1076 ;
1077 [label="gini = 0.0\nsamples = 3\nvalue = [3, 0]"] ;
1075 -> 1077 ;
1078 [label="gini = 0.0\nsamples = 7\nvalue = [7, 0]"] ;
1074 -> 1078 ;
1079 [label="budget <= 52500000.0\ngini = 0.32\nsamples = 10\nvalue = [8, 2]"] ;
1071 -> 1079 ;
1080 [label="gini = 0.0\nsamples = 1\nvalue = [0, 1]"] ;
1079 -> 1080 ;
1081 [label="budget <= 120000000.0\ngini = 0.198\nsamples = 9\nvalue = [8, 1]"] ;
1079 -> 1081 ;
1082 [label="gini = 0.0\nsamples = 6\nvalue = [6, 0]"] ;
1081 -> 1082 ;
1083 [label="Duree <= 103.5\ngini = 0.444\nsamples = 3\nvalue = [2, 1]"] ;
1081 -> 1083 ;
1084 [label="gini = 0.0\nsamples = 2\nvalue = [2, 0]"] ;
1083 -> 1084 ;
1085 [label="gini = 0.0\nsamples = 1\nvalue = [0, 1]"] ;
1083 -> 1085 ;
1086 [label="budget <= 21000000.0\ngini = 0.384\nsamples = 54\nvalue = [40, 14]"] ;
1068 -> 1086 ;
1087 [label="Duree <= 93.0\ngini = 0.486\nsamples = 12\nvalue = [5, 7]"] ;
1086 -> 1087 ;
1088 [label="gini = 0.0\nsamples = 2\nvalue = [2, 0]"] ;
1087 -> 1088 ;
1089 [label="budget <= 19125000.0\ngini = 0.42\nsamples = 10\nvalue = [3, 7]"] ;
1087 -> 1089 ;
1090 [label="annee <= 2007.5\ngini = 0.5\nsamples = 6\nvalue = [3, 3]"] ;
1089 -> 1090 ;
1091 [label="budget <= 18500000.0\ngini = 0.375\nsamples = 4\nvalue = [1, 3]"] ;
1090 -> 1091 ;
1092 [label="gini = 0.0\nsamples = 3\nvalue = [0, 3]"] ;
1091 -> 1092 ;
1093 [label="gini = 0.0\nsamples = 1\nvalue = [1, 0]"] ;
1091 -> 1093 ;
1094 [label="gini = 0.0\nsamples = 2\nvalue = [2, 0]"] ;
1090 -> 1094 ;
1095 [label="gini = 0.0\nsamples = 4\nvalue = [0, 4]"] ;
1089 -> 1095 ;
1096 [label="annee <= 2005.5\ngini = 0.278\nsamples = 42\nvalue = [35, 7]"] ;
1086 -> 1096 ;
1097 [label="Duree <= 90.5\ngini = 0.397\nsamples = 22\nvalue = [16, 6]"] ;
1096 -> 1097 ;
1098 [label="gini = 0.0\nsamples = 1\nvalue = [0, 1]"] ;
1097 -> 1098 ;
1099 [label="Action <= 0.5\ngini = 0.363\nsamples = 21\nvalue = [16, 5]"] ;
1097 -> 1099 ;
1100 [label="budget <= 41000000.0\ngini = 0.444\nsamples = 3\nvalue = [1, 2]"] ;
1099 -> 1100 ;
1101 [label="gini = 0.0\nsamples = 2\nvalue = [0, 2]"] ;
1100 -> 1101 ;
1102 [label="gini = 0.0\nsamples = 1\nvalue = [1, 0]"] ;
1100 -> 1102 ;
1103 [label="Duree <= 102.5\ngini = 0.278\nsamples = 18\nvalue = [15, 3]"] ;
1099 -> 1103 ;
1104 [label="gini = 0.208\nsamples = 17\nvalue = [15, 2]"] ;
1103 -> 1104 ;
1105 [label="gini = 0.0\nsamples = 1\nvalue = [0, 1]"] ;
1103 -> 1105 ;
1106 [label="Duree <= 90.5\ngini = 0.095\nsamples = 20\nvalue = [19, 1]"] ;
1096 -> 1106 ;
1107 [label="budget <= 32500000.0\ngini = 0.444\nsamples = 3\nvalue = [2, 1]"] ;
1106 -> 1107 ;
1108 [label="gini = 0.0\nsamples = 2\nvalue = [2, 0]"] ;
1107 -> 1108 ;
1109 [label="gini = 0.0\nsamples = 1\nvalue = [0, 1]"] ;
1107 -> 1109 ;
1110 [label="gini = 0.0\nsamples = 17\nvalue = [17, 0]"] ;
1106 -> 1110 ;
1111 [label="budget <= 32500000.0\ngini = 0.444\nsamples = 3\nvalue = [1, 2]"] ;
1067 -> 1111 ;
1112 [label="gini = 0.0\nsamples = 2\nvalue = [0, 2]"] ;
1111 -> 1112 ;
1113 [label="gini = 0.0\nsamples = 1\nvalue = [1, 0]"] ;
1111 -> 1113 ;
1114 [label="annee <= 2004.5\ngini = 0.468\nsamples = 123\nvalue = [77, 46]"] ;
1066 -> 1114 ;
1115 [label="budget <= 37000000.0\ngini = 0.354\nsamples = 61\nvalue = [47, 14]"] ;
1114 -> 1115 ;
1116 [label="Crime <= 0.5\ngini = 0.473\nsamples = 26\nvalue = [16, 10]"] ;
1115 -> 1116 ;
1117 [label="Duree <= 110.5\ngini = 0.48\nsamples = 10\nvalue = [4, 6]"] ;
1116 -> 1117 ;
1118 [label="Duree <= 108.0\ngini = 0.49\nsamples = 7\nvalue = [4, 3]"] ;
1117 -> 1118 ;
1119 [label="Sci-Fi <= 0.5\ngini = 0.48\nsamples = 5\nvalue = [2, 3]"] ;
1118 -> 1119 ;
1120 [label="annee <= 1986.5\ngini = 0.444\nsamples = 3\nvalue = [2, 1]"] ;
1119 -> 1120 ;
1121 [label="gini = 0.0\nsamples = 1\nvalue = [0, 1]"] ;
1120 -> 1121 ;
1122 [label="gini = 0.0\nsamples = 2\nvalue = [2, 0]"] ;
1120 -> 1122 ;
1123 [label="gini = 0.0\nsamples = 2\nvalue = [0, 2]"] ;
1119 -> 1123 ;
1124 [label="gini = 0.0\nsamples = 2\nvalue = [2, 0]"] ;
1118 -> 1124 ;
1125 [label="gini = 0.0\nsamples = 3\nvalue = [0, 3]"] ;
1117 -> 1125 ;
1126 [label="budget <= 19500000.0\ngini = 0.375\nsamples = 16\nvalue = [12, 4]"] ;
1116 -> 1126 ;
1127 [label="gini = 0.0\nsamples = 1\nvalue = [0, 1]"] ;
1126 -> 1127 ;
1128 [label="budget <= 26000000.0\ngini = 0.32\nsamples = 15\nvalue = [12, 3]"] ;
1126 -> 1128 ;
1129 [label="gini = 0.0\nsamples = 8\nvalue = [8, 0]"] ;
1128 -> 1129 ;
1130 [label="budget <= 28500000.0\ngini = 0.49\nsamples = 7\nvalue = [4, 3]"] ;
1128 -> 1130 ;
1131 [label="gini = 0.0\nsamples = 1\nvalue = [0, 1]"] ;
1130 -> 1131 ;
1132 [label="Duree <= 107.5\ngini = 0.444\nsamples = 6\nvalue = [4, 2]"] ;
1130 -> 1132 ;
1133 [label="gini = 0.0\nsamples = 1\nvalue = [1, 0]"] ;
1132 -> 1133 ;
1134 [label="gini = 0.48\nsamples = 5\nvalue = [3, 2]"] ;
1132 -> 1134 ;
1135 [label="Duree <= 107.5\ngini = 0.202\nsamples = 35\nvalue = [31, 4]"] ;
1115 -> 1135 ;
1136 [label="Mystery <= 0.5\ngini = 0.42\nsamples = 10\nvalue = [7, 3]"] ;
1135 -> 1136 ;
1137 [label="Sci-Fi <= 0.5\ngini = 0.219\nsamples = 8\nvalue = [7, 1]"] ;
1136 -> 1137 ;
1138 [label="gini = 0.0\nsamples = 6\nvalue = [6, 0]"] ;
1137 -> 1138 ;
1139 [label="Action <= 0.5\ngini = 0.5\nsamples = 2\nvalue = [1, 1]"] ;
1137 -> 1139 ;
1140 [label="gini = 0.0\nsamples = 1\nvalue = [0, 1]"] ;
1139 -> 1140 ;
1141 [label="gini = 0.0\nsamples = 1\nvalue = [1, 0]"] ;
1139 -> 1141 ;
1142 [label="gini = 0.0\nsamples = 2\nvalue = [0, 2]"] ;
1136 -> 1142 ;
1143 [label="Horror <= 0.5\ngini = 0.077\nsamples = 25\nvalue = [24, 1]"] ;
1135 -> 1143 ;
1144 [label="gini = 0.0\nsamples = 23\nvalue = [23, 0]"] ;
1143 -> 1144 ;
1145 [label="Duree <= 109.0\ngini = 0.5\nsamples = 2\nvalue = [1, 1]"] ;
1143 -> 1145 ;
1146 [label="gini = 0.0\nsamples = 1\nvalue = [1, 0]"] ;
1145 -> 1146 ;
1147 [label="gini = 0.0\nsamples = 1\nvalue = [0, 1]"] ;
1145 -> 1147 ;
1148 [label="budget <= 42500000.0\ngini = 0.499\nsamples = 62\nvalue = [30, 32]"] ;
1114 -> 1148 ;
1149 [label="budget <= 34450000.0\ngini = 0.478\nsamples = 48\nvalue = [29, 19]"] ;
1148 -> 1149 ;
1150 [label="annee <= 2008.5\ngini = 0.499\nsamples = 40\nvalue = [21, 19]"] ;
1149 -> 1150 ;
1151 [label="budget <= 27500000.0\ngini = 0.472\nsamples = 21\nvalue = [8, 13]"] ;
1150 -> 1151 ;
1152 [label="Comedy <= 0.5\ngini = 0.432\nsamples = 19\nvalue = [6, 13]"] ;
1151 -> 1152 ;
1153 [label="Crime <= 0.5\ngini = 0.401\nsamples = 18\nvalue = [5, 13]"] ;
1152 -> 1153 ;
1154 [label="gini = 0.0\nsamples = 4\nvalue = [0, 4]"] ;
1153 -> 1154 ;
1155 [label="gini = 0.459\nsamples = 14\nvalue = [5, 9]"] ;
1153 -> 1155 ;
1156 [label="gini = 0.0\nsamples = 1\nvalue = [1, 0]"] ;
1152 -> 1156 ;
1157 [label="gini = 0.0\nsamples = 2\nvalue = [2, 0]"] ;
1151 -> 1157 ;
1158 [label="budget <= 25500000.0\ngini = 0.432\nsamples = 19\nvalue = [13, 6]"] ;
1150 -> 1158 ;
1159 [label="Duree <= 109.5\ngini = 0.26\nsamples = 13\nvalue = [11, 2]"] ;
1158 -> 1159 ;
1160 [label="gini = 0.0\nsamples = 8\nvalue = [8, 0]"] ;
1159 -> 1160 ;
1161 [label="Mystery <= 0.5\ngini = 0.48\nsamples = 5\nvalue = [3, 2]"] ;
1159 -> 1161 ;
1162 [label="gini = 0.444\nsamples = 3\nvalue = [1, 2]"] ;
1161 -> 1162 ;
1163 [label="gini = 0.0\nsamples = 2\nvalue = [2, 0]"] ;
1161 -> 1163 ;
1164 [label="Adventure <= 0.5\ngini = 0.444\nsamples = 6\nvalue = [2, 4]"] ;
1158 -> 1164 ;
1165 [label="Mystery <= 0.5\ngini = 0.32\nsamples = 5\nvalue = [1, 4]"] ;
1164 -> 1165 ;
1166 [label="gini = 0.0\nsamples = 4\nvalue = [0, 4]"] ;
1165 -> 1166 ;
1167 [label="gini = 0.0\nsamples = 1\nvalue = [1, 0]"] ;
1165 -> 1167 ;
1168 [label="gini = 0.0\nsamples = 1\nvalue = [1, 0]"] ;
1164 -> 1168 ;
1169 [label="gini = 0.0\nsamples = 8\nvalue = [8, 0]"] ;
1149 -> 1169 ;
1170 [label="budget <= 105000000.0\ngini = 0.133\nsamples = 14\nvalue = [1, 13]"] ;
1148 -> 1170 ;
1171 [label="gini = 0.0\nsamples = 12\nvalue = [0, 12]"] ;
1170 -> 1171 ;
1172 [label="annee <= 2014.0\ngini = 0.5\nsamples = 2\nvalue = [1, 1]"] ;
1170 -> 1172 ;
1173 [label="gini = 0.0\nsamples = 1\nvalue = [0, 1]"] ;
1172 -> 1173 ;
1174 [label="gini = 0.0\nsamples = 1\nvalue = [1, 0]"] ;
1172 -> 1174 ;
1175 [label="annee <= 2011.5\ngini = 0.245\nsamples = 28\nvalue = [4, 24]"] ;
971 -> 1175 ;
1176 [label="annee <= 1986.0\ngini = 0.142\nsamples = 26\nvalue = [2, 24]"] ;
1175 -> 1176 ;
1177 [label="gini = 0.0\nsamples = 1\nvalue = [1, 0]"] ;
1176 -> 1177 ;
1178 [label="annee <= 2010.5\ngini = 0.077\nsamples = 25\nvalue = [1, 24]"] ;
1176 -> 1178 ;
1179 [label="gini = 0.0\nsamples = 22\nvalue = [0, 22]"] ;
1178 -> 1179 ;
1180 [label="Duree <= 102.5\ngini = 0.444\nsamples = 3\nvalue = [1, 2]"] ;
1178 -> 1180 ;
1181 [label="gini = 0.0\nsamples = 1\nvalue = [1, 0]"] ;
1180 -> 1181 ;
1182 [label="gini = 0.0\nsamples = 2\nvalue = [0, 2]"] ;
1180 -> 1182 ;
1183 [label="gini = 0.0\nsamples = 2\nvalue = [2, 0]"] ;
1175 -> 1183 ;
1184 [label="budget <= 36500000.0\ngini = 0.368\nsamples = 616\nvalue = [150, 466]"] ;
970 -> 1184 ;
1185 [label="Sci-Fi <= 0.5\ngini = 0.216\nsamples = 292\nvalue = [36, 256]"] ;
1184 -> 1185 ;
1186 [label="Duree <= 141.5\ngini = 0.195\nsamples = 283\nvalue = [31, 252]"] ;
1185 -> 1186 ;
1187 [label="budget <= 24750000.0\ngini = 0.238\nsamples = 225\nvalue = [31, 194]"] ;
1186 -> 1187 ;
1188 [label="Romance <= 0.5\ngini = 0.161\nsamples = 102\nvalue = [9, 93]"] ;
1187 -> 1188 ;
1189 [label="Duree <= 140.5\ngini = 0.097\nsamples = 78\nvalue = [4, 74]"] ;
1188 -> 1189 ;
1190 [label="Sport <= 0.5\ngini = 0.077\nsamples = 75\nvalue = [3, 72]"] ;
1189 -> 1190 ;
1191 [label="Mystery <= 0.5\ngini = 0.057\nsamples = 68\nvalue = [2, 66]"] ;
1190 -> 1191 ;
1192 [label="Comedy <= 0.5\ngini = 0.033\nsamples = 60\nvalue = [1, 59]"] ;
1191 -> 1192 ;
1193 [label="gini = 0.0\nsamples = 51\nvalue = [0, 51]"] ;
1192 -> 1193 ;
1194 [label="Duree <= 121.0\ngini = 0.198\nsamples = 9\nvalue = [1, 8]"] ;
1192 -> 1194 ;
1195 [label="gini = 0.444\nsamples = 3\nvalue = [1, 2]"] ;
1194 -> 1195 ;
1196 [label="gini = 0.0\nsamples = 6\nvalue = [0, 6]"] ;
1194 -> 1196 ;
1197 [label="annee <= 1993.5\ngini = 0.219\nsamples = 8\nvalue = [1, 7]"] ;
1191 -> 1197 ;
1198 [label="annee <= 1990.0\ngini = 0.5\nsamples = 2\nvalue = [1, 1]"] ;
1197 -> 1198 ;
1199 [label="gini = 0.0\nsamples = 1\nvalue = [0, 1]"] ;
1198 -> 1199 ;
1200 [label="gini = 0.0\nsamples = 1\nvalue = [1, 0]"] ;
1198 -> 1200 ;
1201 [label="gini = 0.0\nsamples = 6\nvalue = [0, 6]"] ;
1197 -> 1201 ;
1202 [label="Thriller <= 0.5\ngini = 0.245\nsamples = 7\nvalue = [1, 6]"] ;
1190 -> 1202 ;
1203 [label="gini = 0.0\nsamples = 6\nvalue = [0, 6]"] ;
1202 -> 1203 ;
1204 [label="gini = 0.0\nsamples = 1\nvalue = [1, 0]"] ;
1202 -> 1204 ;
1205 [label="annee <= 2005.0\ngini = 0.444\nsamples = 3\nvalue = [1, 2]"] ;
1189 -> 1205 ;
1206 [label="gini = 0.0\nsamples = 1\nvalue = [1, 0]"] ;
1205 -> 1206 ;
1207 [label="gini = 0.0\nsamples = 2\nvalue = [0, 2]"] ;
1205 -> 1207 ;
1208 [label="Musical <= 0.5\ngini = 0.33\nsamples = 24\nvalue = [5, 19]"] ;
1188 -> 1208 ;
1209 [label="annee <= 1986.5\ngini = 0.287\nsamples = 23\nvalue = [4, 19]"] ;
1208 -> 1209 ;
1210 [label="gini = 0.0\nsamples = 1\nvalue = [1, 0]"] ;
1209 -> 1210 ;
1211 [label="Music <= 0.5\ngini = 0.236\nsamples = 22\nvalue = [3, 19]"] ;
1209 -> 1211 ;
1212 [label="annee <= 2005.5\ngini = 0.18\nsamples = 20\nvalue = [2, 18]"] ;
1211 -> 1212 ;
1213 [label="gini = 0.0\nsamples = 11\nvalue = [0, 11]"] ;
1212 -> 1213 ;
1214 [label="annee <= 2008.5\ngini = 0.346\nsamples = 9\nvalue = [2, 7]"] ;
1212 -> 1214 ;
1215 [label="gini = 0.5\nsamples = 4\nvalue = [2, 2]"] ;
1214 -> 1215 ;
1216 [label="gini = 0.0\nsamples = 5\nvalue = [0, 5]"] ;
1214 -> 1216 ;
1217 [label="History <= 0.5\ngini = 0.5\nsamples = 2\nvalue = [1, 1]"] ;
1211 -> 1217 ;
